genomestart  33
trait 1 0.1 0.0 0.0 0.0 0.0 0.0 0.0 0.0 
trait 2 0.13671875 0.1027673277773425 0.0 0.09015187599727695 0.726641816484883 0.04863504476419596 0.0 0.03678724579792718 
trait 3 0.3 0.0 0.0 0.0 0.0 0.0 0.0 0.0 
node 1 1 1 1
node 2 1 1 1
node 3 1 1 3
node 4 1 0 2
node 9 1 0 0
node 16 1 0 0
node 101 1 0 0
gene  1 1 4 1.1618647873093233 0 1.0 1.1618647873093233 0
gene  2 2 4 -3.033338384248069 0 2.0 -3.033338384248069 0
gene  1 3 4 -3.1825661245107217 0 3.0 -3.1825661245107217 1
gene  1 1 9 -0.032978204937724964 0 12.0 -0.032978204937724964 1
gene  1 9 4 9.90696930410616 0 13.0 9.90696930410616 1
gene  1 1 16 -4.3591016538886596 0 32.0 -4.3591016538886596 1
gene  1 16 4 2.5379933144923372 0 33.0 2.5379933144923372 1
gene  3 16 9 -5.677893778752278 0 119.0 -5.677893778752278 1
gene  1 2 16 2.8364347436596886 0 188.0 2.8364347436596886 1
gene  1 2 9 -4.9554218430275565 0 234.0 -4.9554218430275565 1
gene  2 2 101 -0.23005405801093026 0 293.0 -0.23005405801093026 1
gene  2 101 4 1.0020044459144202 0 294.0 1.0020044459144202 1
gene  1 16 101 1.666862932418065 0 322.0 1.666862932418065 1
genomeend 33
