genomestart  136
trait 1 0.2935411763001937 0.0 0.0 0.0 0.0 0.0 0.2312727540189906 0.32350430354786885 
trait 2 0.40227575878298616 0.0 0.0 0.0 0.0 0.3245553261200018 0.0 0.12248956525856575 
trait 3 0.27987903438058287 0.0 0.06832300214786285 0.013700278761728302 0.0 0.0 0.022361762654715997 0.0 
node 1 1 1 1
node 2 1 1 1
node 3 1 1 3
node 4 1 0 2
node 9 1 0 0
node 39 3 0 0
node 98 1 0 0
node 110 1 0 0
gene  1 1 4 1.1983046913458986 0 1.0 1.1983046913458986 0
gene  2 2 4 1.5746310435572513 0 2.0 1.5746310435572513 0
gene  3 3 4 0.6084415412915604 0 3.0 0.6084415412915604 1
gene  1 1 9 -0.9045213038964106 0 12.0 -0.9045213038964106 1
gene  1 9 4 -12.169351409707307 0 13.0 -12.169351409707307 1
gene  1 2 9 -1.6924035453694333 0 89.0 -1.6924035453694333 1
gene  1 1 39 -0.9084435847976182 0 98.0 -0.9084435847976182 1
gene  1 39 4 3.9930506742824816 0 99.0 3.9930506742824816 1
gene  1 1 98 2.4084799995613992 0 283.0 2.4084799995613992 1
gene  1 98 4 -1.5975207378117047 0 284.0 -1.5975207378117047 1
gene  2 2 110 -0.6171737680133709 0 323.0 -0.6171737680133709 1
gene  2 110 4 6.297556149208257 0 324.0 6.297556149208257 1
genomeend 136
