genomestart  4
trait 1 0.41672741379181405 0.8139422834092715 0.48349415739913226 0.8726316101350279 0.7332355308282872 0.0 0.0 0.0 
trait 2 0.015016241318884183 0.0 0.0 0.7088520002836988 0.0 0.0 0.1888707005927327 0.05015909729735557 
trait 3 0.26249999999999996 0.5073876902467966 0.0 0.009103984516349028 0.7503923388038842 0.0 0.0 0.18279090214989435 
node 1 1 1 1
node 2 1 1 1
node 3 1 1 1
node 4 1 1 3
node 5 3 0 2
node 11 1 0 0
node 64 1 0 0
node 95 1 0 0
node 227 1 0 0
node 246 2 0 0
node 314 1 0 0
node 328 1 0 0
node 352 1 0 0
node 386 1 0 0
node 407 1 0 0
node 622 1 0 0
node 626 1 0 0
node 726 1 0 0
node 754 1 0 0
node 759 1 0 0
node 770 1 0 0
node 901 1 0 0
gene  1 1 5 10.625665047142947 0 1.0 10.625665047142947 1
gene  2 2 5 13.433524700083517 0 2.0 13.433524700083517 1
gene  1 3 5 16.04230223842047 0 1.0 16.04230223842047 1
gene  2 4 5 -2.5444861334409032 0 2.0 -2.5444861334409032 1
gene  3 3 11 14.395649484576335 0 13.0 14.395649484576335 1
gene  3 11 5 -30.79155635389611 0 14.0 -30.79155635389611 1
gene  1 1 11 18.00874462689131 0 88.0 18.00874462689131 1
gene  2 2 11 2.099259750319211 0 139.0 2.099259750319211 1
gene  1 1 64 -5.992360621466596 0 196.0 -5.992360621466596 1
gene  1 64 5 5.7979022745543585 0 197.0 5.7979022745543585 0
gene  1 4 11 -12.35389992231228 0 267.0 -12.35389992231228 1
gene  3 3 95 -2.012559212055721 0 296.0 -2.012559212055721 1
gene  3 95 11 -5.157380839122365 0 297.0 -5.157380839122365 1
gene  3 64 95 2.95064098307138 0 457.0 2.95064098307138 0
gene  3 2 95 -11.798800870956706 0 691.0 -11.798800870956706 1
gene  2 3 227 -5.235890648265016 0 712.0 -5.235890648265016 0
gene  3 227 95 -2.041583016038416 0 713.0 -2.041583016038416 1
gene  2 95 5 2.526591754566434 0 759.0 2.526591754566434 1
gene  3 2 246 -3.786833313373614 0 765.0 -3.786833313373614 0
gene  3 246 95 0.6172633411044026 0 766.0 0.6172633411044026 1
gene  3 2 314 11.63618161109842 0 965.0 11.63618161109842 1
gene  3 314 246 0.450975817156954 0 966.0 0.450975817156954 1
gene  2 2 328 -6.9587229445478656 0 1011.0 -6.9587229445478656 1
gene  2 328 11 -3.5369935201504807 0 1012.0 -3.5369935201504807 1
gene  1 64 352 -1.730941205654582 0 1084.0 -1.730941205654582 1
gene  1 352 5 -7.921862729929183 0 1085.0 -7.921862729929183 1
gene  2 328 386 10.625322483704512 0 1190.0 10.625322483704512 1
gene  2 386 11 -1.504936786171533 0 1191.0 -1.504936786171533 1
gene  1 352 314 5.744014821402075 0 1210.0 5.744014821402075 1
gene  3 246 227 -5.345587458545166 0 1227.0 -5.345587458545166 1
gene  1 1 407 -0.7603254153544943 0 1250.0 -0.7603254153544943 1
gene  1 407 64 1.1205350466954704 0 1251.0 1.1205350466954704 0
gene  2 1 314 -0.9598410435442355 0 1272.0 -0.9598410435442355 1
gene  3 4 227 2.005714930709888 0 1439.0 2.005714930709888 1
gene  1 2 227 0.05652821779815964 0 1677.0 0.05652821779815964 0
gene  3 64 246 5.313071867583181 0 1881.0 5.313071867583181 1
gene  3 64 622 -7.593029172930255 0 1916.0 -7.593029172930255 1
gene  3 622 246 8.841771161939887 0 1917.0 8.841771161939887 1
gene  1 407 626 2.9023532723402035 0 1927.0 2.9023532723402035 1
gene  1 626 64 -4.665179825604978 0 1928.0 -4.665179825604978 1
gene  2 3 726 -0.45477039141568165 0 2208.0 -0.45477039141568165 1
gene  2 726 227 3.241561051807212 0 2209.0 3.241561051807212 1
gene  1 328 246 8.878854456694231 0 2292.0 8.878854456694231 1
gene  2 386 754 -5.32949211362661 0 2328.0 -5.32949211362661 1
gene  2 754 11 -2.0616036854706064 0 2329.0 -2.0616036854706064 1
gene  1 2 759 0.11866681474347951 0 2346.0 0.11866681474347951 1
gene  1 759 227 0.19456644101002407 0 2347.0 0.19456644101002407 1
gene  3 64 770 2.3504591759220017 0 2372.0 2.3504591759220017 0
gene  3 770 95 -1.723878594741834 0 2373.0 -1.723878594741834 1
gene  1 626 227 -2.1682890992301425 0 2724.0 -2.1682890992301425 1
gene  2 1 352 -1.042625131131159 0 2735.0 -1.042625131131159 1
gene  2 246 759 0.5166124638047431 0 2751.0 0.5166124638047431 1
gene  3 64 901 4.19556806426393 0 2766.0 4.19556806426393 1
gene  3 901 770 -1.9579423847102573 0 2767.0 -1.9579423847102573 1
gene  1 314 770 10.957507737527447 0 2985.0 10.957507737527447 1
genomeend 4
