genomestart  0
trait 1 0.1 0.0 0.0 0.493374718799809 0.0 0.0 0.0 0.1621305090394973 
trait 2 0.1 0.0 0.0 0.0 0.0 0.0 0.0 0.0 
trait 3 0.3 0.0 0.0 0.0 0.0 0.0 0.0 0.0 
node 1 1 1 1
node 2 1 1 1
node 3 1 1 1
node 4 1 1 3
node 5 1 0 2
node 8 1 0 0
node 13 1 0 0
node 18 2 0 0
node 215 1 0 0
node 286 1 0 0
node 318 1 0 0
node 330 1 0 0
gene  1 1 5 4.365578704411348 0 1.0 4.365578704411348 1
gene  2 2 5 -5.321565396837281 0 2.0 -5.321565396837281 0
gene  3 3 5 -4.808054748379982 0 1.0 -4.808054748379982 1
gene  1 4 5 -6.772694049049599 0 2.0 -6.772694049049599 1
gene  2 2 8 1.5055133689475804 0 7.0 1.5055133689475804 1
gene  2 8 5 -1.9097479166738371 0 8.0 -1.9097479166738371 0
gene  3 3 13 1.9250784476416012 0 18.0 1.9250784476416012 1
gene  3 13 5 1.5633560409821845 0 19.0 1.5633560409821845 1
gene  3 2 18 10.289144059560602 0 30.0 10.289144059560602 1
gene  2 18 5 8.827339960668121 0 31.0 8.827339960668121 1
gene  3 3 18 4.3055837200392375 0 39.0 4.3055837200392375 1
gene  2 1 18 -13.19868309803835 0 77.0 -13.19868309803835 0
gene  1 1 13 3.3800786478833285 0 162.0 3.3800786478833285 1
gene  3 13 18 5.724673859153081 0 400.0 5.724673859153081 1
gene  1 1 215 -7.661204410162281 0 690.0 -7.661204410162281 1
gene  1 215 5 -2.171759252971996 0 691.0 -2.171759252971996 1
gene  3 3 8 -0.2961997014300084 0 730.0 -0.2961997014300084 1
gene  3 13 8 -3.2823847529889774 0 783.0 -3.2823847529889774 1
gene  1 2 13 -8.80559937101667 0 839.0 -8.80559937101667 1
gene  2 1 286 0.8590330252705811 0 899.0 0.8590330252705811 1
gene  2 286 18 -12.433537388972868 0 900.0 -12.433537388972868 1
gene  2 8 318 0.4047202911185205 0 986.0 0.4047202911185205 1
gene  2 318 5 2.321358358237093 0 987.0 2.321358358237093 1
gene  3 3 330 -1.0587774606579583 0 1020.0 -1.0587774606579583 1
gene  3 330 13 1.3136073590947603 0 1021.0 1.3136073590947603 1
gene  2 286 8 -1.810397489388488 0 1070.0 -1.810397489388488 1
gene  2 13 318 7.4645513645312125 0 1163.0 7.4645513645312125 1
gene  3 8 18 2.00949946249776 0 1262.0 2.00949946249776 1
genomeend 0
