/* Species # 002         : (size= 002) (AvfFit= 4.012) (Age= 81.000)  */
/*-------------------------------------------------------------------*/
/* Organism # 000 Fitness:  0.000 Error:  0.000                      */
genomestart  0
trait 1 1.2941372174404835 0.9492131083301152 1.1090281800019244 0.0 0.0 0.0 0.583909760687592 1.581281465168184 
trait 2 0.2 0.0027179594933514606 0.18349727540419086 0.05198759219154954 0.0 0.1232631512304428 0.0 0.07138255864755731 
trait 3 0.05606425910303875 0.10723213201299975 0.0 0.5741391977790439 1.070825578920453 0.33620899897846335 0.0 0.3288561502056637 
node 1 3 1 1
node 2 2 1 1
node 3 1 1 3
node 4 2 0 2
node 9 1 0 0
node 265 1 0 0
gene  1 1 4 -1.7696884466503633 0 1.0 -1.7696884466503633 1
gene  2 2 4 2.294665279159524 0 2.0 2.294665279159524 1
gene  3 3 4 3.164912086772225 0 3.0 3.164912086772225 1
gene  2 1 9 -3.190690576431306 0 12.0 -3.190690576431306 1
gene  1 9 4 0.3029278275849115 0 13.0 0.3029278275849115 1
gene  2 2 9 3.5746274409451626 0 23.0 3.5746274409451626 1
gene  3 3 9 3.254467719423146 0 30.0 3.254467719423146 1
gene  1 1 265 2.8213117194874493 0 1141.0 2.8213117194874493 1
gene  1 265 4 0.873167966484659 0 1142.0 0.873167966484659 1
gene  1 9 265 -1.1556624377396503 0 1181.0 -1.1556624377396503 1
genomeend 0
/* Organism # 001 Fitness:  0.000 Error:  0.000                      */
genomestart  1
trait 1 1.2941372174404835 0.9492131083301152 1.1090281800019244 0.0 0.0 0.0 0.583909760687592 1.581281465168184 
trait 2 0.2 0.0027179594933514606 0.18349727540419086 0.05198759219154954 0.0 0.1232631512304428 0.0 0.07138255864755731 
trait 3 0.05606425910303875 0.10723213201299975 0.0 0.5741391977790439 1.070825578920453 0.33620899897846335 0.0 0.3288561502056637 
node 1 3 1 1
node 2 2 1 1
node 3 1 1 3
node 4 2 0 2
node 9 1 0 0
node 265 1 0 0
gene  1 1 4 0.36431874156971356 0 1.0 0.36431874156971356 1
gene  2 2 4 0.12601780819281894 0 2.0 0.12601780819281894 1
gene  3 3 4 0.9601984570729422 0 3.0 0.9601984570729422 1
gene  2 1 9 -1.5213366752803235 0 12.0 -1.5213366752803235 1
gene  1 9 4 0.2026188434784687 0 13.0 0.2026188434784687 1
gene  2 2 9 2.8176607449462274 0 23.0 2.8176607449462274 1
gene  3 3 9 3.2273429978863635 0 30.0 3.2273429978863635 1
gene  1 1 265 2.064727122830565 0 1141.0 2.064727122830565 1
gene  1 265 4 -0.37002665720407313 0 1142.0 -0.37002665720407313 1
gene  1 9 265 0.41543574885729295 0 1181.0 0.41543574885729295 1
genomeend 1
/*-------------------------------------------------------------------*/
/* Species # 003         : (size= 002) (AvfFit= 4.000) (Age= 77.000)  */
/*-------------------------------------------------------------------*/
/* Organism # 002 Fitness:  0.000 Error:  0.000                      */
genomestart  2
trait 1 0.29307253942250683 0.08744052133678214 0.0 0.08913510031933561 0.052161091620658295 0.2063323021522164 0.0 0.0 
trait 2 0.0 1.0513829703432767 0.9607360313011539 0.05198759219154954 0.0 1.0599638492616126 0.0 0.3768101620132469 
trait 3 0.389586886941927 0.11173032836463688 0.0 0.0 0.0 0.0 0.0 0.0 
node 1 1 1 1
node 2 3 1 1
node 3 1 1 3
node 4 1 0 2
node 9 1 0 0
node 18 1 0 0
node 309 1 0 0
node 355 1 0 0
gene  3 1 4 4.905992099922269 0 1.0 4.905992099922269 1
gene  2 2 4 2.723465090146517 0 2.0 2.723465090146517 1
gene  3 3 4 3.1101122394790965 0 3.0 3.1101122394790965 1
gene  1 1 9 -10.609910517462174 0 12.0 -10.609910517462174 1
gene  1 9 4 -8.282265818525076 0 13.0 -8.282265818525076 1
gene  1 2 9 -2.6082764396511546 0 23.0 -2.6082764396511546 1
gene  3 3 9 -1.2653543540207177 0 30.0 -1.2653543540207177 1
gene  2 2 18 3.0961245656936622 0 36.0 3.0961245656936622 1
gene  2 18 4 5.55998447548885 0 37.0 5.55998447548885 1
gene  3 1 18 1.8555526947945093 0 49.0 1.8555526947945093 1
gene  1 9 18 2.08048857710137 0 69.0 2.08048857710137 1
gene  1 3 18 -4.0361187764840825 0 750.0 -4.0361187764840825 1
gene  2 2 309 3.048593732889 0 1314.0 3.048593732889 1
gene  2 309 4 -0.8545784443095661 0 1315.0 -0.8545784443095661 0
gene  2 1 309 -0.34306410811692545 0 1337.0 -0.34306410811692545 1
gene  1 3 309 -3.8344113707803515 0 1393.0 -3.8344113707803515 1
gene  1 309 18 -12.08024948444665 0 1496.0 -12.08024948444665 1
gene  2 309 355 1.0 0 1543.0 0.0 1
gene  2 355 4 -0.8545784443095661 0 1544.0 0.0 1
genomeend 2
/* Organism # 003 Fitness:  0.000 Error:  0.000                      */
genomestart  3
trait 1 0.29307253942250683 0.08744052133678214 0.0 0.08913510031933561 0.052161091620658295 0.2063323021522164 0.0 0.0 
trait 2 0.0 1.0513829703432767 0.9607360313011539 0.05198759219154954 0.0 1.0599638492616126 0.0 0.3768101620132469 
trait 3 0.389586886941927 0.11173032836463688 0.0 0.0 0.0 0.0 0.0 0.0 
node 1 1 1 1
node 2 3 1 1
node 3 1 1 3
node 4 1 0 2
node 9 1 0 0
node 18 1 0 0
node 309 1 0 0
node 356 1 0 0
gene  3 1 4 4.905992099922269 0 1.0 4.905992099922269 1
gene  2 2 4 2.723465090146517 0 2.0 2.723465090146517 1
gene  3 3 4 3.1101122394790965 0 3.0 3.1101122394790965 1
gene  1 1 9 -10.609910517462174 0 12.0 -10.609910517462174 1
gene  1 9 4 -8.282265818525076 0 13.0 -8.282265818525076 1
gene  1 2 9 -2.6082764396511546 0 23.0 -2.6082764396511546 1
gene  3 3 9 -1.2653543540207177 0 30.0 -1.2653543540207177 1
gene  2 2 18 3.0961245656936622 0 36.0 3.0961245656936622 0
gene  2 18 4 5.55998447548885 0 37.0 5.55998447548885 1
gene  3 1 18 1.8555526947945093 0 49.0 1.8555526947945093 1
gene  1 9 18 2.08048857710137 0 69.0 2.08048857710137 1
gene  1 3 18 -4.0361187764840825 0 750.0 -4.0361187764840825 1
gene  2 2 309 3.048593732889 0 1314.0 3.048593732889 1
gene  2 309 4 -0.8545784443095661 0 1315.0 -0.8545784443095661 1
gene  2 1 309 -0.34306410811692545 0 1337.0 -0.34306410811692545 1
gene  1 3 309 -3.8344113707803515 0 1393.0 -3.8344113707803515 1
gene  1 309 18 -12.08024948444665 0 1496.0 -12.08024948444665 1
gene  2 2 356 1.0 0 1545.0 0.0 1
gene  2 356 18 3.0961245656936622 0 1546.0 0.0 1
genomeend 3
/*-------------------------------------------------------------------*/
/* Species # 008         : (size= 005) (AvfFit= 8.002) (Age= 75.000)  */
/*-------------------------------------------------------------------*/
/* Organism # 004 Fitness:  0.000 Error:  0.000                      */
genomestart  4
trait 1 0.0 0.9065222131151179 0.012998172595310664 0.0 0.0 0.19482310169657135 0.5137493198746705 0.0 
trait 2 0.2 0.8826316629284949 0.09853356535808687 0.15332102530004849 0.0 0.1232631512304428 0.0 0.0021181440785613174 
trait 3 0.6046520920209935 1.036924889360165 0.0 0.0 0.0 0.0 0.6667703329926568 0.038638135418719244 
node 1 1 1 1
node 2 1 1 1
node 3 1 1 3
node 4 1 0 2
node 9 1 0 0
node 21 1 0 0
node 23 3 0 0
gene  1 1 4 8.198547112298387 0 1.0 8.198547112298387 1
gene  2 2 4 -19.02079821692746 0 2.0 -19.02079821692746 1
gene  3 3 4 1.9105681711518225 0 3.0 1.9105681711518225 1
gene  1 1 9 -8.462840476961286 0 12.0 -8.462840476961286 1
gene  1 9 4 -6.786953149593606 0 13.0 -6.786953149593606 1
gene  2 2 9 11.27089069163814 0 23.0 11.27089069163814 1
gene  3 3 9 2.9265177418368062 0 30.0 2.9265177418368062 1
gene  1 1 21 -2.7427925348023416 0 44.0 -2.7427925348023416 1
gene  1 21 4 1.4574245531619217 0 45.0 1.4574245531619217 1
gene  2 2 23 -12.49438628739855 0 54.0 -12.49438628739855 1
gene  2 23 4 -1.1745773194258866 0 55.0 -1.1745773194258866 1
gene  2 1 23 -12.7288137039268 0 63.0 -12.7288137039268 1
gene  2 9 21 0.39565878295337953 0 134.0 0.39565878295337953 1
gene  2 23 9 0.33272979756176824 0 228.0 0.33272979756176824 1
gene  3 3 21 0.6485678981551304 0 258.0 0.6485678981551304 1
gene  2 23 21 1.2830196393926374 0 533.0 1.2830196393926374 1
gene  1 2 21 2.8921780363332124 0 573.0 2.8921780363332124 1
gene  1 3 23 0.6271393262116993 0 726.0 0.6271393262116993 1
genomeend 4
/* Organism # 005 Fitness:  0.000 Error:  0.000                      */
genomestart  5
trait 1 0.0 0.9065222131151179 0.012998172595310664 0.0 0.0 0.19482310169657135 0.5137493198746705 0.0 
trait 2 0.2 0.8826316629284949 0.09853356535808687 0.15332102530004849 0.0 0.1232631512304428 0.0 0.0021181440785613174 
trait 3 0.6046520920209935 1.036924889360165 0.0 0.0 0.0 0.0 0.6667703329926568 0.038638135418719244 
node 1 1 1 1
node 2 1 1 1
node 3 1 1 3
node 4 1 0 2
node 9 1 0 0
node 21 1 0 0
node 23 2 0 0
gene  1 1 4 9.501468603073086 0 1.0 9.501468603073086 1
gene  2 2 4 -13.90391812517451 0 2.0 -13.90391812517451 1
gene  3 3 4 0.7962303021663797 0 3.0 0.7962303021663797 1
gene  1 1 9 -2.306632603093986 0 12.0 -2.306632603093986 1
gene  1 9 4 -0.37899941163442774 0 13.0 -0.37899941163442774 1
gene  2 2 9 5.7973469180518205 0 23.0 5.7973469180518205 1
gene  3 3 9 0.3216835465422012 0 30.0 0.3216835465422012 1
gene  1 1 21 0.8244515774769473 0 44.0 0.8244515774769473 1
gene  1 21 4 4.891434479395141 0 45.0 4.891434479395141 1
gene  2 2 23 -8.594159012428866 0 54.0 -8.594159012428866 1
gene  2 23 4 -0.35207491708947547 0 55.0 -0.35207491708947547 1
gene  2 1 23 -16.653007580519564 0 63.0 -16.653007580519564 1
gene  2 9 21 4.066211608704626 0 134.0 4.066211608704626 1
gene  2 23 9 -0.5520094391295072 0 228.0 -0.5520094391295072 1
gene  1 3 21 -1.8478441500201286 0 258.0 -1.8478441500201286 1
gene  2 23 21 0.7699563821370631 0 533.0 0.7699563821370631 1
gene  1 2 21 0.054721295559691185 0 573.0 0.054721295559691185 1
gene  1 3 23 3.436884604599289 0 726.0 3.436884604599289 1
genomeend 5
/* Organism # 006 Fitness:  0.000 Error:  0.000                      */
genomestart  6
trait 1 0.0 0.9065222131151179 0.012998172595310664 0.0 0.0 0.19482310169657135 0.5137493198746705 0.0 
trait 2 0.2 0.8826316629284949 0.09853356535808687 0.15332102530004849 0.0 0.1232631512304428 0.0 0.0021181440785613174 
trait 3 0.6046520920209935 1.036924889360165 0.0 0.0 0.0 0.0 0.6667703329926568 0.038638135418719244 
node 1 2 1 1
node 2 1 1 1
node 3 1 1 3
node 4 1 0 2
node 9 1 0 0
node 21 1 0 0
node 23 3 0 0
gene  1 1 4 8.052519672379875 0 1.0 8.052519672379875 1
gene  2 2 4 -19.02079821692746 0 2.0 -19.02079821692746 1
gene  3 3 4 -2.200698451096725 0 3.0 -2.200698451096725 1
gene  1 1 9 -9.91733695417672 0 12.0 -9.91733695417672 1
gene  1 9 4 -1.5901616019825446 0 13.0 -1.5901616019825446 1
gene  2 2 9 12.416193782389627 0 23.0 12.416193782389627 1
gene  3 3 9 0.6880209361880738 0 30.0 0.6880209361880738 1
gene  1 1 21 -0.6200728600315542 0 44.0 -0.6200728600315542 1
gene  1 21 4 0.478846052458079 0 45.0 0.478846052458079 1
gene  2 2 23 -11.731043016721923 0 54.0 -11.731043016721923 1
gene  2 23 4 -0.07574441533429704 0 55.0 -0.07574441533429704 1
gene  2 1 23 -11.659725231404527 0 63.0 -11.659725231404527 1
gene  2 9 21 3.116263548621656 0 134.0 3.116263548621656 1
gene  2 23 9 -1.870013095034727 0 228.0 -1.870013095034727 1
gene  3 3 21 -6.573120284225176 0 258.0 -6.573120284225176 1
gene  2 23 21 -1.6156254604417988 0 533.0 -1.6156254604417988 1
gene  1 2 21 4.097945083063983 0 573.0 4.097945083063983 1
gene  1 3 23 -0.49758096882351066 0 726.0 -0.49758096882351066 1
genomeend 6
/* Organism # 007 Fitness:  0.000 Error:  0.000                      */
genomestart  7
trait 1 0.0 0.9065222131151179 0.012998172595310664 0.0 0.0 0.19482310169657135 0.5137493198746705 0.0 
trait 2 0.2 0.8826316629284949 0.09853356535808687 0.15332102530004849 0.0 0.1232631512304428 0.0 0.0021181440785613174 
trait 3 0.6046520920209935 1.036924889360165 0.0 0.0 0.0 0.0 0.6667703329926568 0.038638135418719244 
node 1 1 1 1
node 2 1 1 1
node 3 1 1 3
node 4 1 0 2
node 9 1 0 0
node 21 1 0 0
node 23 2 0 0
gene  1 1 4 0.9668324854728274 0 1.0 0.9668324854728274 1
gene  2 2 4 -1.9394603879645764 0 2.0 -1.9394603879645764 1
gene  3 3 4 0.37862345200902325 0 3.0 0.37862345200902325 1
gene  1 1 9 -2.4600616049916826 0 12.0 -2.4600616049916826 1
gene  1 9 4 -2.5461494521984513 0 13.0 -2.5461494521984513 1
gene  2 2 9 7.1407859729159515 0 23.0 7.1407859729159515 1
gene  3 3 9 4.51907674928577 0 30.0 4.51907674928577 1
gene  1 1 21 -7.565107971924204 0 44.0 -7.565107971924204 1
gene  1 21 4 2.4980400981202324 0 45.0 2.4980400981202324 1
gene  2 2 23 2.3621051315545567 0 54.0 2.3621051315545567 1
gene  2 23 4 -4.368792975853291 0 55.0 -4.368792975853291 1
gene  2 1 23 -13.691640339019758 0 63.0 -13.691640339019758 1
gene  2 9 21 -2.3782603031625147 0 134.0 -2.3782603031625147 1
gene  2 23 9 8.25432942613136 0 228.0 8.25432942613136 1
gene  1 3 21 -9.491475021522833 0 258.0 -9.491475021522833 1
gene  2 23 21 0.5891853735673023 0 533.0 0.5891853735673023 1
gene  1 2 21 -1.3416033974110926 0 573.0 -1.3416033974110926 1
gene  1 3 23 0.36101064496994906 0 726.0 0.36101064496994906 1
genomeend 7
/* Organism # 008 Fitness:  0.000 Error:  0.000                      */
genomestart  8
trait 1 0.0 0.9065222131151179 0.012998172595310664 0.0 0.0 0.19482310169657135 0.5137493198746705 0.0 
trait 2 0.2 0.8826316629284949 0.09853356535808687 0.15332102530004849 0.0 0.1232631512304428 0.0 0.0021181440785613174 
trait 3 0.6046520920209935 1.036924889360165 0.0 0.0 0.0 0.0 0.6667703329926568 0.038638135418719244 
node 1 1 1 1
node 2 1 1 1
node 3 1 1 3
node 4 1 0 2
node 9 1 0 0
node 21 1 0 0
node 23 2 0 0
gene  1 1 4 -2.2504328987905513 0 1.0 -2.2504328987905513 1
gene  2 2 4 -0.5949006055077135 0 2.0 -0.5949006055077135 1
gene  3 3 4 0.6506791866214884 0 3.0 0.6506791866214884 1
gene  1 1 9 -1.684085584347526 0 12.0 -1.684085584347526 1
gene  1 9 4 -2.77249669109365 0 13.0 -2.77249669109365 1
gene  2 2 9 0.9666930975768662 0 23.0 0.9666930975768662 1
gene  3 3 9 -0.23712543047744994 0 30.0 -0.23712543047744994 1
gene  1 1 21 -5.703947889660078 0 44.0 -5.703947889660078 1
gene  1 21 4 1.5802611088376137 0 45.0 1.5802611088376137 1
gene  2 2 23 -11.424910430681864 0 54.0 -11.424910430681864 1
gene  2 23 4 -3.316049978278996 0 55.0 -3.316049978278996 1
gene  2 1 23 -2.121083976948122 0 63.0 -2.121083976948122 1
gene  2 9 21 3.2618720030263724 0 134.0 3.2618720030263724 1
gene  2 23 9 7.735293609915562 0 228.0 7.735293609915562 1
gene  1 3 21 -7.109740088093628 0 258.0 -7.109740088093628 1
gene  2 23 21 2.3388811332578094 0 533.0 2.3388811332578094 1
gene  1 2 21 1.4044147390159094 0 573.0 1.4044147390159094 1
gene  1 3 23 0.865126373391697 0 726.0 0.865126373391697 1
genomeend 8
/*-------------------------------------------------------------------*/
/* Species # 009         : (size= 005) (AvfFit= 7.296) (Age= 74.000)  */
/*-------------------------------------------------------------------*/
/* Organism # 009 Fitness:  0.000 Error:  0.000                      */
genomestart  9
trait 1 0.6298619617414262 0.0 1.819628646330337 1.2141456294561852 0.3419826303759518 0.5852363170352695 0.0 0.0 
trait 2 0.21530287253622277 0.7138543405838669 0.12364985839711991 0.012996898047887385 0.003821956604221799 0.0 0.0 0.8391590031298986 
trait 3 0.3 0.0 0.8892007683608536 0.31971701304301214 0.0 0.0 0.0 0.4711979957649468 
node 1 1 1 1
node 2 2 1 1
node 3 3 1 3
node 4 1 0 2
node 9 2 0 0
node 21 1 0 0
node 22 1 0 0
node 23 1 0 0
node 138 1 0 0
node 191 1 0 0
gene  1 1 4 2.443615374856199 0 1.0 2.443615374856199 1
gene  2 2 4 3.7063670419367774 0 2.0 3.7063670419367774 1
gene  3 3 4 -12.181479816940094 0 3.0 -12.181479816940094 1
gene  1 1 9 0.05758636037773851 0 12.0 0.05758636037773851 0
gene  1 9 4 -6.695777357286039 0 13.0 -6.695777357286039 1
gene  3 2 9 0.4498999077030891 0 23.0 0.4498999077030891 1
gene  3 3 9 -1.6597575270173235 0 30.0 -1.6597575270173235 1
gene  1 1 21 1.5358836215650544 0 44.0 1.5358836215650544 1
gene  1 1 22 -0.7460527616016603 0 47.0 -0.7460527616016603 1
gene  2 2 23 -6.258487993900096 0 54.0 -6.258487993900096 1
gene  2 23 4 19.841183594629268 0 55.0 19.841183594629268 1
gene  2 23 21 1.3848799412804904 0 237.0 1.3848799412804904 1
gene  1 21 9 1.0050245257662596 0 318.0 1.0050245257662596 1
gene  1 1 138 0.21653030774008886 0 605.0 0.21653030774008886 1
gene  1 138 4 -3.5491504010269095 0 606.0 -3.5491504010269095 1
gene  1 1 191 0.9502690511254588 0 820.0 0.9502690511254588 1
gene  1 191 9 -0.7506630347667681 0 821.0 -0.7506630347667681 1
gene  3 23 9 -1.495030512464436 0 1329.0 -1.495030512464436 1
genomeend 9
/* Organism # 010 Fitness:  0.000 Error:  0.000                      */
genomestart  10
trait 1 0.6298619617414262 0.0 1.819628646330337 1.2141456294561852 0.3419826303759518 0.5852363170352695 0.0 0.0 
trait 2 0.21530287253622277 0.7138543405838669 0.12364985839711991 0.012996898047887385 0.003821956604221799 0.0 0.0 0.8391590031298986 
trait 3 0.3 0.0 0.8892007683608536 0.31971701304301214 0.0 0.0 0.0 0.4711979957649468 
node 1 1 1 1
node 2 2 1 1
node 3 3 1 3
node 4 1 0 2
node 9 2 0 0
node 21 1 0 0
node 22 1 0 0
node 23 1 0 0
node 138 1 0 0
node 191 1 0 0
gene  1 1 4 4.822663608669323 0 1.0 4.822663608669323 1
gene  2 2 4 2.3488350039657337 0 2.0 2.3488350039657337 1
gene  3 3 4 -14.070836028962157 0 3.0 -14.070836028962157 1
gene  1 1 9 2.1713154936739802 0 12.0 2.1713154936739802 0
gene  1 9 4 -6.597721426835216 0 13.0 -6.597721426835216 1
gene  3 2 9 2.060483758178394 0 23.0 2.060483758178394 1
gene  3 3 9 -4.127431137169621 0 30.0 -4.127431137169621 1
gene  1 1 21 0.7265913692779118 0 44.0 0.7265913692779118 1
gene  1 1 22 0.5804487773872506 0 47.0 0.5804487773872506 1
gene  2 2 23 -2.4723379687220532 0 54.0 -2.4723379687220532 1
gene  2 23 4 19.785221787105918 0 55.0 19.785221787105918 1
gene  2 23 21 -2.0680314545162064 0 237.0 -2.0680314545162064 1
gene  1 21 9 -1.899608798788539 0 318.0 -1.899608798788539 1
gene  1 1 138 -0.10635980781753962 0 605.0 -0.10635980781753962 1
gene  1 138 4 -2.989931231819317 0 606.0 -2.989931231819317 1
gene  1 1 191 1.2599607580597842 0 820.0 1.2599607580597842 1
gene  1 191 9 -1.5687318994382822 0 821.0 -1.5687318994382822 1
gene  3 23 9 1.5655202309111431 0 1329.0 1.5655202309111431 1
genomeend 10
/* Organism # 011 Fitness:  0.000 Error:  0.000                      */
genomestart  11
trait 1 0.6298619617414262 0.0 1.819628646330337 1.2141456294561852 0.3419826303759518 0.5852363170352695 0.0 0.0 
trait 2 0.21530287253622277 0.7138543405838669 0.12364985839711991 0.012996898047887385 0.003821956604221799 0.0 0.0 0.8391590031298986 
trait 3 0.3 0.0 0.8892007683608536 0.31971701304301214 0.0 0.0 0.0 0.4711979957649468 
node 1 1 1 1
node 2 2 1 1
node 3 3 1 3
node 4 1 0 2
node 9 2 0 0
node 21 1 0 0
node 22 1 0 0
node 23 1 0 0
node 138 1 0 0
node 191 1 0 0
gene  1 1 4 7.381985872923037 0 1.0 7.381985872923037 1
gene  3 2 4 3.512951499093588 0 2.0 3.512951499093588 1
gene  3 3 4 -15.006056647378204 0 3.0 -15.006056647378204 1
gene  1 1 9 5.45546532710495 0 12.0 5.45546532710495 0
gene  1 9 4 -9.301311588004907 0 13.0 -9.301311588004907 1
gene  3 2 9 -1.7022508071139575 0 23.0 -1.7022508071139575 1
gene  3 3 9 -5.073807969002738 0 30.0 -5.073807969002738 1
gene  1 1 21 2.219451829541511 0 44.0 2.219451829541511 1
gene  1 1 22 2.7486396826631108 0 47.0 2.7486396826631108 1
gene  2 2 23 -5.470574741534889 0 54.0 -5.470574741534889 1
gene  2 23 4 19.182909209077565 0 55.0 19.182909209077565 1
gene  2 23 21 -2.446632968349756 0 237.0 -2.446632968349756 1
gene  1 21 9 -3.0766452889764304 0 318.0 -3.0766452889764304 1
gene  1 1 138 -1.4376496763842916 0 605.0 -1.4376496763842916 1
gene  1 138 4 -5.0967153913733885 0 606.0 -5.0967153913733885 1
gene  1 1 191 0.14472843221323362 0 820.0 0.14472843221323362 1
gene  1 191 9 -1.5687318994382822 0 821.0 -1.5687318994382822 1
gene  3 23 9 -0.6296666233354838 0 1329.0 -0.6296666233354838 1
genomeend 11
/* Organism # 012 Fitness:  0.000 Error:  0.000                      */
genomestart  12
trait 1 0.6298619617414262 0.0 1.819628646330337 1.2141456294561852 0.3419826303759518 0.5852363170352695 0.0 0.0 
trait 2 0.21530287253622277 0.7138543405838669 0.12364985839711991 0.012996898047887385 0.003821956604221799 0.0 0.0 0.8391590031298986 
trait 3 0.3 0.0 0.8892007683608536 0.31971701304301214 0.0 0.0 0.0 0.4711979957649468 
node 1 1 1 1
node 2 2 1 1
node 3 3 1 3
node 4 1 0 2
node 9 2 0 0
node 21 1 0 0
node 22 1 0 0
node 23 1 0 0
node 138 1 0 0
node 191 1 0 0
gene  1 1 4 3.935023652010404 0 1.0 3.935023652010404 1
gene  2 2 4 -0.0575737781174559 0 2.0 -0.0575737781174559 1
gene  3 3 4 -15.545392907286152 0 3.0 -15.545392907286152 1
gene  1 1 9 1.3300834845674825 0 12.0 1.3300834845674825 0
gene  1 9 4 -8.00940314463432 0 13.0 -8.00940314463432 1
gene  3 2 9 -0.9312617905554219 0 23.0 -0.9312617905554219 1
gene  3 3 9 -1.5680646799960727 0 30.0 -1.5680646799960727 1
gene  1 1 21 0.9055305291477804 0 44.0 0.9055305291477804 1
gene  1 1 22 2.275806969570104 0 47.0 2.275806969570104 1
gene  2 2 23 -2.119422100894499 0 54.0 -2.119422100894499 1
gene  2 23 4 20.86807133360613 0 55.0 20.86807133360613 1
gene  2 23 21 0.14741914118716382 0 237.0 0.14741914118716382 1
gene  1 21 9 -0.3081410606788775 0 318.0 -0.3081410606788775 1
gene  1 1 138 -2.3109529615072377 0 605.0 -2.3109529615072377 1
gene  1 138 4 -4.7724992079712845 0 606.0 -4.7724992079712845 1
gene  1 1 191 4.009288344990198 0 820.0 4.009288344990198 1
gene  1 191 9 -0.32646615597590145 0 821.0 -0.32646615597590145 1
gene  3 23 9 -2.1905853950217904 0 1329.0 -2.1905853950217904 1
genomeend 12
/* Organism # 013 Fitness:  0.000 Error:  0.000                      */
genomestart  13
trait 1 0.6298619617414262 0.0 1.819628646330337 1.2141456294561852 0.3419826303759518 0.5852363170352695 0.0 0.0 
trait 2 0.21530287253622277 0.7138543405838669 0.12364985839711991 0.012996898047887385 0.003821956604221799 0.0 0.0 0.8391590031298986 
trait 3 0.3 0.0 0.8892007683608536 0.31971701304301214 0.0 0.0 0.0 0.4711979957649468 
node 1 1 1 1
node 2 2 1 1
node 3 3 1 3
node 4 1 0 2
node 9 2 0 0
node 21 1 0 0
node 22 1 0 0
node 23 1 0 0
node 138 1 0 0
node 191 1 0 0
gene  1 1 4 3.8460206857803767 0 1.0 3.8460206857803767 1
gene  2 2 4 1.3989792476945218 0 2.0 1.3989792476945218 1
gene  3 3 4 -13.687337655569333 0 3.0 -13.687337655569333 1
gene  1 1 9 2.4606506411113744 0 12.0 2.4606506411113744 0
gene  1 9 4 -9.353949331625298 0 13.0 -9.353949331625298 1
gene  3 2 9 -0.6226557597074811 0 23.0 -0.6226557597074811 1
gene  3 3 9 -3.2213109321936755 0 30.0 -3.2213109321936755 1
gene  1 1 21 -0.7617272543192335 0 44.0 -0.7617272543192335 1
gene  1 1 22 2.104346702423991 0 47.0 2.104346702423991 1
gene  2 2 23 -5.480171112405232 0 54.0 -5.480171112405232 1
gene  2 23 4 22.064387983508478 0 55.0 22.064387983508478 1
gene  2 23 21 1.862503629719146 0 237.0 1.862503629719146 1
gene  1 21 9 -2.781199296672436 0 318.0 -2.781199296672436 1
gene  1 1 138 1.2456697183025274 0 605.0 1.2456697183025274 1
gene  1 138 4 -1.942833910687894 0 606.0 -1.942833910687894 1
gene  1 1 191 1.1710748357331333 0 820.0 1.1710748357331333 1
gene  1 191 9 -2.276187685021447 0 821.0 -2.276187685021447 1
gene  3 23 9 -0.8582995476230761 0 1329.0 -0.8582995476230761 1
genomeend 13
/*-------------------------------------------------------------------*/
/* Species # 011         : (size= 003) (AvfFit= 6.500) (Age= 73.000)  */
/*-------------------------------------------------------------------*/
/* Organism # 014 Fitness:  0.000 Error:  0.000                      */
genomestart  14
trait 1 0.0 0.8580011825213507 1.0420135438753881 0.0 0.0 0.48801298930470705 0.9020068287123166 1.280618460522627 
trait 2 0.0 0.0 0.8608091764515908 0.05198759219154954 0.0 0.0 0.8997169574269427 0.857647079293969 
trait 3 0.7401861026057137 1.1534916299026055 0.507734174858372 0.11922388165683073 0.7160010208228526 0.08776884887469208 1.9002650181175844 1.1786196016276251 
node 1 1 1 1
node 2 1 1 1
node 3 2 1 3
node 4 2 0 2
node 9 3 0 0
node 21 2 0 0
node 23 1 0 0
node 26 1 0 0
node 41 2 0 0
node 337 1 0 0
gene  3 1 4 4.688277307551246 0 1.0 4.688277307551246 1
gene  2 2 4 0.7258066902319693 0 2.0 0.7258066902319693 1
gene  3 3 4 -14.214497898541227 0 3.0 -14.214497898541227 1
gene  1 1 9 -1.2126690979422257 0 12.0 -1.2126690979422257 1
gene  1 9 4 -0.20570593230662765 0 13.0 -0.20570593230662765 1
gene  2 2 9 0.19502780142732856 0 23.0 0.19502780142732856 1
gene  3 3 9 4.001984239252197 0 30.0 4.001984239252197 1
gene  3 1 21 1.760681972497642 0 44.0 1.760681972497642 1
gene  1 21 4 -11.227022940532528 0 45.0 -11.227022940532528 1
gene  2 2 23 0.8014617787172353 0 54.0 0.8014617787172353 1
gene  1 23 4 23.435448493923253 0 55.0 23.435448493923253 1
gene  2 1 23 1.4756411776142886 0 63.0 1.4756411776142886 1
gene  1 1 26 -3.428647936752394 0 67.0 -3.428647936752394 1
gene  1 26 9 -2.604226026122005 0 68.0 -2.604226026122005 0
gene  1 1 41 0.8072845992434816 0 139.0 0.8072845992434816 1
gene  1 41 9 -5.285642385180296 0 140.0 -5.285642385180296 1
gene  2 21 9 4.94672657308255 0 1098.0 4.94672657308255 1
gene  3 2 21 -2.7713852182331036 0 1155.0 -2.7713852182331036 1
gene  3 41 21 11.551490148320251 0 1352.0 11.551490148320251 1
gene  1 26 337 3.529402155758878 0 1440.0 3.529402155758878 1
gene  1 337 9 -1.6958856335834447 0 1441.0 -1.6958856335834447 1
gene  2 23 26 -7.612119388749749 0 1466.0 -7.612119388749749 1
gene  3 2 41 -9.75283459863066 0 1486.0 -9.75283459863066 1
genomeend 14
/* Organism # 015 Fitness:  0.000 Error:  0.000                      */
genomestart  15
trait 1 0.0 0.8580011825213507 1.0420135438753881 0.0 0.0 0.48801298930470705 0.9020068287123166 1.280618460522627 
trait 2 0.0 0.0 0.8608091764515908 0.05198759219154954 0.0 0.0 0.8997169574269427 0.857647079293969 
trait 3 0.7401861026057137 1.1534916299026055 0.507734174858372 0.11922388165683073 0.7160010208228526 0.08776884887469208 1.9002650181175844 1.1786196016276251 
node 1 1 1 1
node 2 1 1 1
node 3 2 1 3
node 4 2 0 2
node 9 3 0 0
node 21 2 0 0
node 23 1 0 0
node 26 1 0 0
node 41 2 0 0
node 337 1 0 0
gene  3 1 4 3.130969559659556 0 1.0 3.130969559659556 1
gene  2 2 4 2.796690735021782 0 2.0 2.796690735021782 1
gene  3 3 4 1.10827044145315 0 3.0 1.10827044145315 1
gene  1 1 9 1.226208729059509 0 12.0 1.226208729059509 1
gene  1 9 4 0.3522879973839699 0 13.0 0.3522879973839699 1
gene  2 2 9 -0.5107650828533522 0 23.0 -0.5107650828533522 1
gene  3 3 9 1.419340594913673 0 30.0 1.419340594913673 1
gene  3 1 21 3.629156266497888 0 44.0 3.629156266497888 1
gene  1 21 4 -10.50812830270152 0 45.0 -10.50812830270152 1
gene  2 2 23 1.1622117837962582 0 54.0 1.1622117837962582 1
gene  1 23 4 24.19822868240733 0 55.0 24.19822868240733 1
gene  2 1 23 0.9921681648460008 0 63.0 0.9921681648460008 1
gene  1 1 26 -4.304217652286077 0 67.0 -4.304217652286077 1
gene  3 26 9 -0.4074260227212864 0 68.0 -0.4074260227212864 0
gene  1 1 41 -1.8055382042497634 0 139.0 -1.8055382042497634 1
gene  1 41 9 0.7091446474417926 0 140.0 0.7091446474417926 1
gene  2 21 9 0.8636309150683117 0 1098.0 0.8636309150683117 1
gene  3 2 21 -3.39435862411271 0 1155.0 -3.39435862411271 1
gene  3 41 21 8.3169710919509 0 1352.0 8.3169710919509 1
gene  1 26 337 4.4414615065785545 0 1440.0 4.4414615065785545 1
gene  1 337 9 -0.6723020342715753 0 1441.0 -0.6723020342715753 1
gene  2 23 26 -8.052537253258166 0 1466.0 -8.052537253258166 1
gene  3 2 41 -10.900959279936439 0 1486.0 -10.900959279936439 1
genomeend 15
/* Organism # 016 Fitness:  0.000 Error:  0.000                      */
genomestart  16
trait 1 0.0 0.8580011825213507 1.0420135438753881 0.0 0.0 0.48801298930470705 0.9020068287123166 1.280618460522627 
trait 2 0.0 0.0 0.8608091764515908 0.05198759219154954 0.0 0.0 0.8997169574269427 0.857647079293969 
trait 3 0.7401861026057137 1.1534916299026055 0.507734174858372 0.11922388165683073 0.7160010208228526 0.08776884887469208 1.9002650181175844 1.1786196016276251 
node 1 1 1 1
node 2 1 1 1
node 3 2 1 3
node 4 2 0 2
node 9 3 0 0
node 21 2 0 0
node 23 1 0 0
node 26 1 0 0
node 41 2 0 0
node 337 1 0 0
gene  3 1 4 5.299212930892978 0 1.0 5.299212930892978 1
gene  2 2 4 -0.3580228848620328 0 2.0 -0.3580228848620328 1
gene  3 3 4 -11.456293847492946 0 3.0 -11.456293847492946 1
gene  1 1 9 1.7031613908068641 0 12.0 1.7031613908068641 1
gene  1 9 4 -0.014178885436410327 0 13.0 -0.014178885436410327 1
gene  2 2 9 -2.2810250925106015 0 23.0 -2.2810250925106015 1
gene  3 3 9 0.48594135248403836 0 30.0 0.48594135248403836 1
gene  3 1 21 2.7836360023056494 0 44.0 2.7836360023056494 1
gene  1 21 4 -8.696909486691954 0 45.0 -8.696909486691954 1
gene  2 2 23 4.266732251823731 0 54.0 4.266732251823731 1
gene  1 23 4 19.957551519731233 0 55.0 19.957551519731233 1
gene  2 1 23 1.0484998302994706 0 63.0 1.0484998302994706 1
gene  1 1 26 -3.470227447707554 0 67.0 -3.470227447707554 1
gene  1 26 9 -0.1053190550828989 0 68.0 -0.1053190550828989 0
gene  1 1 41 1.224627486221416 0 139.0 1.224627486221416 1
gene  1 41 9 -4.326944041540862 0 140.0 -4.326944041540862 1
gene  2 21 9 4.382335296587484 0 1098.0 4.382335296587484 1
gene  3 2 21 -2.0187094881204377 0 1155.0 -2.0187094881204377 1
gene  3 41 21 11.63847370579077 0 1352.0 11.63847370579077 1
gene  1 26 337 2.053580802797951 0 1440.0 2.053580802797951 1
gene  1 337 9 -3.062528515974307 0 1441.0 -3.062528515974307 1
gene  2 23 26 -7.612119388749749 0 1466.0 -7.612119388749749 1
gene  3 2 41 -10.93420642638525 0 1486.0 -10.93420642638525 1
genomeend 16
/*-------------------------------------------------------------------*/
/* Species # 012         : (size= 003) (AvfFit= 5.103) (Age= 71.000)  */
/*-------------------------------------------------------------------*/
/* Organism # 017 Fitness:  0.000 Error:  0.000                      */
genomestart  17
trait 1 0.1 0.0 0.0 0.0 0.0 0.0 0.0 0.0 
trait 2 0.2 0.0 0.12364985839711991 0.4425154923398742 0.6898871693398724 0.1232631512304428 0.0 0.38679678725028577 
trait 3 0.609200375804614 0.0 0.0 0.0 0.0 0.7191053582158266 0.00947224133569282 0.0 
node 1 1 1 1
node 2 1 1 1
node 3 1 1 3
node 4 2 0 2
node 9 3 0 0
node 21 1 0 0
node 22 1 0 0
node 23 3 0 0
node 36 1 0 0
node 40 1 0 0
node 43 3 0 0
gene  1 1 4 -7.438236898764462 0 1.0 -7.438236898764462 1
gene  2 2 4 1.9218655737545178 0 2.0 1.9218655737545178 1
gene  2 3 4 1.9643684842999956 0 3.0 1.9643684842999956 1
gene  1 1 9 4.698309655066572 0 12.0 4.698309655066572 1
gene  1 9 4 -8.015392490422428 0 13.0 -8.015392490422428 1
gene  1 2 9 -22.27649665238279 0 23.0 -22.27649665238279 1
gene  2 3 9 1.678606746120923 0 30.0 1.678606746120923 1
gene  1 1 21 1.3799283196860603 0 44.0 1.3799283196860603 1
gene  1 1 22 4.681251475826467 0 47.0 4.681251475826467 1
gene  2 2 23 -0.5344639918262837 0 54.0 -0.5344639918262837 1
gene  2 23 4 15.780457825095057 0 55.0 15.780457825095057 1
gene  1 1 23 -4.159945383377872 0 100.0 -4.159945383377872 1
gene  1 1 36 0.3367371502859428 0 116.0 0.3367371502859428 1
gene  1 36 9 0.5292426807748862 0 117.0 0.5292426807748862 1
gene  2 2 40 -6.350701283486565 0 136.0 -6.350701283486565 1
gene  2 2 43 5.425936787309448 0 147.0 5.425936787309448 1
gene  1 43 4 2.9803315510695803 0 148.0 2.9803315510695803 1
gene  1 3 22 0.2879855418697985 0 772.0 0.2879855418697985 1
gene  3 22 40 -3.3167574268454443 0 892.0 -3.3167574268454443 1
gene  1 4 40 2.735828724851088 0 1332.0 2.735828724851088 1
gene  2 9 21 0.8872137505647082 0 1365.0 0.8872137505647082 1
genomeend 17
/* Organism # 018 Fitness:  0.000 Error:  0.000                      */
genomestart  18
trait 1 0.1 0.0 0.0 0.0 0.0 0.0 0.0 0.0 
trait 2 0.2 0.0 0.12364985839711991 0.4425154923398742 0.6898871693398724 0.1232631512304428 0.0 0.38679678725028577 
trait 3 0.609200375804614 0.0 0.0 0.0 0.0 0.7191053582158266 0.00947224133569282 0.0 
node 1 1 1 1
node 2 1 1 1
node 3 1 1 3
node 4 2 0 2
node 9 3 0 0
node 21 1 0 0
node 22 1 0 0
node 23 3 0 0
node 36 1 0 0
node 40 1 0 0
node 43 3 0 0
gene  1 1 4 -4.781827512852861 0 1.0 -4.781827512852861 1
gene  2 2 4 -0.7547361698844834 0 2.0 -0.7547361698844834 1
gene  2 3 4 -2.0446686641608247 0 3.0 -2.0446686641608247 1
gene  1 1 9 8.767817253390799 0 12.0 8.767817253390799 1
gene  1 9 4 -6.209415318324448 0 13.0 -6.209415318324448 1
gene  1 2 9 -2.3000668109997235 0 23.0 -2.3000668109997235 1
gene  2 3 9 3.521735328365201 0 30.0 3.521735328365201 1
gene  1 1 21 0.2948651098017313 0 44.0 0.2948651098017313 1
gene  1 1 22 2.721706772196745 0 47.0 2.721706772196745 1
gene  2 2 23 -0.09249360280819274 0 54.0 -0.09249360280819274 1
gene  2 23 4 16.15741942328582 0 55.0 16.15741942328582 1
gene  1 1 23 0.8134773250463717 0 100.0 0.8134773250463717 1
gene  1 1 36 1.883788399586613 0 116.0 1.883788399586613 1
gene  1 36 9 -1.0097421656061298 0 117.0 -1.0097421656061298 1
gene  2 2 40 -8.261669964121362 0 136.0 -8.261669964121362 1
gene  2 2 43 1.8492439472473396 0 147.0 1.8492439472473396 1
gene  1 43 4 1.3843888854138386 0 148.0 1.3843888854138386 1
gene  1 3 22 -0.42794356741710504 0 772.0 -0.42794356741710504 1
gene  3 22 40 0.24389872552591174 0 892.0 0.24389872552591174 1
gene  1 4 40 0.9110981828179829 0 1332.0 0.9110981828179829 1
gene  2 9 21 3.845854326403703 0 1365.0 3.845854326403703 1
genomeend 18
/* Organism # 019 Fitness:  0.000 Error:  0.000                      */
genomestart  19
trait 1 0.1 0.0 0.0 0.0 0.0 0.0 0.0 0.0 
trait 2 0.2 0.0 0.12364985839711991 0.4425154923398742 0.6898871693398724 0.1232631512304428 0.0 0.38679678725028577 
trait 3 0.609200375804614 0.0 0.0 0.0 0.0 0.7191053582158266 0.00947224133569282 0.0 
node 1 1 1 1
node 2 1 1 1
node 3 1 1 3
node 4 2 0 2
node 9 3 0 0
node 21 1 0 0
node 22 1 0 0
node 23 3 0 0
node 36 1 0 0
node 40 1 0 0
node 43 3 0 0
gene  1 1 4 -5.366525512281507 0 1.0 -5.366525512281507 1
gene  2 2 4 1.9218655737545178 0 2.0 1.9218655737545178 1
gene  2 3 4 -1.217753085487323 0 3.0 -1.217753085487323 1
gene  1 1 9 6.2924901893782295 0 12.0 6.2924901893782295 1
gene  1 9 4 -8.663425424817813 0 13.0 -8.663425424817813 1
gene  1 2 9 -24.18726346175862 0 23.0 -24.18726346175862 1
gene  2 3 9 3.8857741333020863 0 30.0 3.8857741333020863 1
gene  1 1 21 -0.12440448207793164 0 44.0 -0.12440448207793164 1
gene  1 1 22 4.681251475826467 0 47.0 4.681251475826467 1
gene  2 2 23 -0.5344639918262837 0 54.0 -0.5344639918262837 1
gene  2 23 4 15.367799558080055 0 55.0 15.367799558080055 1
gene  1 1 23 -2.0877901873395786 0 100.0 -2.0877901873395786 1
gene  1 1 36 0.6622524135839327 0 116.0 0.6622524135839327 1
gene  1 36 9 1.2406117883825507 0 117.0 1.2406117883825507 1
gene  2 2 40 -6.260861641304285 0 136.0 -6.260861641304285 1
gene  2 2 43 3.210761790924316 0 147.0 3.210761790924316 1
gene  1 43 4 1.3843888854138386 0 148.0 1.3843888854138386 1
gene  1 3 22 -0.031431115719811886 0 772.0 -0.031431115719811886 1
gene  3 22 40 -0.9849878641237539 0 892.0 -0.9849878641237539 1
gene  1 4 40 0.9110981828179829 0 1332.0 0.9110981828179829 1
gene  2 9 21 2.824225704977353 0 1365.0 2.824225704977353 1
gene  2 36 4 -3.1633234948578757 0 1536.0 -3.1633234948578757 1
genomeend 19
/*-------------------------------------------------------------------*/
/* Species # 013         : (size= 003) (AvfFit= 3.990) (Age= 70.000)  */
/*-------------------------------------------------------------------*/
/* Organism # 020 Fitness:  0.000 Error:  0.000                      */
genomestart  20
trait 1 0.0 0.09026118331538802 0.19600402534356454 0.0 0.0 0.0 0.0 0.0 
trait 2 0.2 0.5167382940933697 0.1790789188970549 0.2502024225142215 0.5558083106780509 0.0 0.0 0.06352242711884475 
trait 3 0.6743442214950826 0.0 0.2715728007207203 0.5057776272307242 0.6291658354067702 0.9932985844893015 0.0 0.0 
node 1 3 1 1
node 2 2 1 1
node 3 3 1 3
node 4 1 0 2
node 9 1 0 0
node 18 2 0 0
node 37 2 0 0
gene  1 1 4 7.423382263616041 0 1.0 7.423382263616041 0
gene  3 2 4 0.7458786766928274 0 2.0 0.7458786766928274 0
gene  3 3 4 0.05229939533396538 0 3.0 0.05229939533396538 1
gene  1 1 9 5.129506481824493 0 12.0 5.129506481824493 1
gene  1 9 4 -0.48832531382202726 0 13.0 -0.48832531382202726 1
gene  2 2 9 0.9203808949092684 0 23.0 0.9203808949092684 1
gene  3 3 9 0.4090928946520276 0 30.0 0.4090928946520276 1
gene  2 2 18 -10.067086849114801 0 36.0 -10.067086849114801 1
gene  2 18 4 -3.3243691540270923 0 37.0 -3.3243691540270923 1
gene  1 1 18 -2.6253008236551576 0 49.0 -2.6253008236551576 1
gene  1 9 18 -0.6511314558498243 0 69.0 -0.6511314558498243 1
gene  2 3 18 -0.9364669759349034 0 108.0 -0.9364669759349034 1
gene  1 1 37 1.6685594232801637 0 122.0 1.6685594232801637 1
gene  1 37 9 2.1929183455664822 0 123.0 2.1929183455664822 1
gene  3 37 18 1.2560111126424656 0 379.0 1.2560111126424656 1
gene  1 3 37 -0.04165044237998822 0 767.0 -0.04165044237998822 1
gene  3 2 37 2.535925970505584 0 874.0 2.535925970505584 1
gene  1 37 4 -1.2334473562331136 0 1036.0 -1.2334473562331136 1
genomeend 20
/* Organism # 021 Fitness:  0.000 Error:  0.000                      */
genomestart  21
trait 1 0.0 0.09026118331538802 0.19600402534356454 0.0 0.0 0.0 0.0 0.0 
trait 2 0.2 0.5167382940933697 0.1790789188970549 0.2502024225142215 0.5558083106780509 0.0 0.0 0.06352242711884475 
trait 3 0.6743442214950826 0.0 0.2715728007207203 0.5057776272307242 0.6291658354067702 0.9932985844893015 0.0 0.0 
node 1 3 1 1
node 2 2 1 1
node 3 3 1 3
node 4 1 0 2
node 9 1 0 0
node 18 1 0 0
node 37 2 0 0
gene  1 1 4 6.315546307789912 0 1.0 6.315546307789912 0
gene  3 2 4 -1.879925077218392 0 2.0 -1.879925077218392 0
gene  3 3 4 2.5080387743468777 0 3.0 2.5080387743468777 1
gene  1 1 9 3.8148256874914805 0 12.0 3.8148256874914805 1
gene  1 9 4 0.9528898467822835 0 13.0 0.9528898467822835 1
gene  2 2 9 2.9662784137916365 0 23.0 2.9662784137916365 1
gene  3 3 9 -2.0484164363637776 0 30.0 -2.0484164363637776 1
gene  2 2 18 -9.567577976455187 0 36.0 -9.567577976455187 1
gene  2 18 4 -3.4755239899926385 0 37.0 -3.4755239899926385 1
gene  1 1 18 -3.3907632192693455 0 49.0 -3.3907632192693455 1
gene  1 9 18 -1.7144469618252358 0 69.0 -1.7144469618252358 1
gene  2 3 18 -2.5225841237206907 0 108.0 -2.5225841237206907 1
gene  1 1 37 -1.2089108080000535 0 122.0 -1.2089108080000535 1
gene  1 37 9 3.5469379427800956 0 123.0 3.5469379427800956 1
gene  3 37 18 -0.23203251236081607 0 379.0 -0.23203251236081607 1
gene  1 3 37 -0.058092990272951006 0 767.0 -0.058092990272951006 1
gene  3 2 37 3.724420301287874 0 874.0 3.724420301287874 1
gene  1 37 4 -0.1939746999993916 0 1036.0 -0.1939746999993916 1
genomeend 21
/* Organism # 022 Fitness:  0.000 Error:  0.000                      */
genomestart  22
trait 1 0.0 0.09026118331538802 0.19600402534356454 0.0 0.0 0.0 0.0 0.0 
trait 2 0.2 0.5167382940933697 0.1790789188970549 0.2502024225142215 0.5558083106780509 0.0 0.0 0.06352242711884475 
trait 3 0.6743442214950826 0.0 0.2715728007207203 0.5057776272307242 0.6291658354067702 0.9932985844893015 0.0 0.0 
node 1 3 1 1
node 2 2 1 1
node 3 3 1 3
node 4 1 0 2
node 9 1 0 0
node 18 2 0 0
node 37 2 0 0
gene  1 1 4 3.675452525320744 0 1.0 3.675452525320744 0
gene  3 2 4 -3.5781688654471813 0 2.0 -3.5781688654471813 0
gene  3 3 4 0.7575715541315706 0 3.0 0.7575715541315706 1
gene  1 1 9 1.5285420613800473 0 12.0 1.5285420613800473 1
gene  1 9 4 -3.148189981449189 0 13.0 -3.148189981449189 1
gene  2 2 9 1.9057196053387297 0 23.0 1.9057196053387297 1
gene  3 3 9 -1.2846695897868767 0 30.0 -1.2846695897868767 1
gene  2 2 18 -11.724760096946854 0 36.0 -11.724760096946854 1
gene  2 18 4 -5.231438848895609 0 37.0 -5.231438848895609 1
gene  1 1 18 -1.6172783672630726 0 49.0 -1.6172783672630726 1
gene  2 9 18 -1.5119658967402052 0 69.0 -1.5119658967402052 1
gene  2 3 18 -4.291538196367759 0 108.0 -4.291538196367759 1
gene  1 1 37 0.08880739664005066 0 122.0 0.08880739664005066 1
gene  1 37 9 4.2688474379902175 0 123.0 4.2688474379902175 1
gene  3 37 18 1.3414106317937526 0 379.0 1.3414106317937526 1
gene  1 3 37 0.6503182553667073 0 767.0 0.6503182553667073 1
gene  3 2 37 2.9300953668411185 0 874.0 2.9300953668411185 1
gene  1 37 4 0.37241091982761715 0 1036.0 0.37241091982761715 1
genomeend 22
/*-------------------------------------------------------------------*/
/* Species # 014         : (size= 002) (AvfFit= 4.000) (Age= 70.000)  */
/*-------------------------------------------------------------------*/
/* Organism # 023 Fitness:  0.000 Error:  0.000                      */
genomestart  23
trait 1 0.0 0.10556607489750408 0.24676030384224357 0.046914743421041155 0.0 0.0 0.07051527497864875 0.024066392912412582 
trait 2 0.2914982474255111 1.4404130240352861 0.6291447384403711 0.1997007544827205 0.5408782762748201 0.5297591053922254 0.8701743453844212 0.0 
trait 3 0.3443651003231086 0.19054926219181667 0.11309030963400524 0.0 1.0086323407851814 1.5051063052726952 0.0 0.7155933095530705 
node 1 2 1 1
node 2 1 1 1
node 3 1 1 3
node 4 2 0 2
node 153 2 0 0
gene  1 1 4 1.4096781452017288 0 1.0 1.4096781452017288 1
gene  3 2 4 -11.043799739230613 0 2.0 -11.043799739230613 1
gene  2 3 4 2.5007014728988093 0 3.0 2.5007014728988093 1
gene  1 1 153 0.7615136045384048 0 669.0 0.7615136045384048 1
gene  3 153 4 0.09591494771336112 0 670.0 0.09591494771336112 1
gene  3 2 153 9.337784338923356 0 769.0 9.337784338923356 1
gene  2 3 153 10.997424403316337 0 1475.0 10.997424403316337 1
genomeend 23
/* Organism # 024 Fitness:  0.000 Error:  0.000                      */
genomestart  24
trait 1 0.0 0.10556607489750408 0.24676030384224357 0.046914743421041155 0.0 0.0 0.07051527497864875 0.024066392912412582 
trait 2 0.2914982474255111 1.4404130240352861 0.6291447384403711 0.1997007544827205 0.5408782762748201 0.5297591053922254 0.8701743453844212 0.0 
trait 3 0.3443651003231086 0.19054926219181667 0.11309030963400524 0.0 1.0086323407851814 1.5051063052726952 0.0 0.7155933095530705 
node 1 3 1 1
node 2 1 1 1
node 3 1 1 3
node 4 2 0 2
node 153 2 0 0
gene  1 1 4 0.4707632550947147 0 1.0 0.4707632550947147 1
gene  3 2 4 -9.080190625017647 0 2.0 -9.080190625017647 1
gene  2 3 4 1.7438768957682054 0 3.0 1.7438768957682054 1
gene  1 1 153 -2.2261630333453875 0 669.0 -2.2261630333453875 1
gene  3 153 4 22.2425371203194 0 670.0 22.2425371203194 1
gene  3 2 153 9.583071766285592 0 769.0 9.583071766285592 1
gene  2 3 153 8.411685576764148 0 1475.0 8.411685576764148 1
genomeend 24
/*-------------------------------------------------------------------*/
/* Species # 016         : (size= 003) (AvfFit= 4.611) (Age= 69.000)  */
/*-------------------------------------------------------------------*/
/* Organism # 025 Fitness:  0.000 Error:  0.000                      */
genomestart  25
trait 1 0.0 0.0 0.0 0.0 0.0 0.0 0.0 0.0 
trait 2 0.7793157729028495 0.0 0.6669175658416052 0.3386618058441209 0.0 0.0 0.0 0.2529374955252839 
trait 3 0.3 0.0 0.0 0.0 0.0 0.0 0.0 0.0 
node 1 1 1 1
node 2 1 1 1
node 3 1 1 3
node 4 1 0 2
node 9 1 0 0
node 21 1 0 0
node 22 1 0 0
node 23 1 0 0
node 37 2 0 0
gene  1 1 4 -8.11833450430796 0 1.0 -8.11833450430796 0
gene  2 2 4 -1.4078728886348126 0 2.0 -1.4078728886348126 1
gene  3 3 4 -1.7912276745775888 0 3.0 -1.7912276745775888 1
gene  1 1 9 -10.633772741386107 0 12.0 -10.633772741386107 1
gene  1 9 4 -14.310590903427338 0 13.0 -14.310590903427338 1
gene  2 2 9 -6.068588390680525 0 23.0 -6.068588390680525 1
gene  3 3 9 1.4238644294088179 0 30.0 1.4238644294088179 1
gene  1 1 21 7.020508052535363 0 44.0 7.020508052535363 1
gene  1 1 22 -12.083796520011765 0 47.0 -12.083796520011765 1
gene  2 2 23 -0.0651312463475825 0 54.0 -0.0651312463475825 1
gene  2 23 4 -1.3510373127919177 0 55.0 -1.3510373127919177 1
gene  1 1 23 -2.1013563732534504 0 63.0 -2.1013563732534504 1
gene  3 1 37 1.0665411127679123 0 122.0 1.0665411127679123 1
gene  1 37 9 2.3920670032590787 0 123.0 2.3920670032590787 1
gene  1 21 23 -6.483179821783939 0 1057.0 -6.483179821783939 1
gene  1 3 22 2.3553578123526995 0 1103.0 2.3553578123526995 1
gene  1 37 22 3.45419622769609 0 1234.0 3.45419622769609 1
gene  3 2 21 1.8976402946299846 0 1263.0 1.8976402946299846 1
genomeend 25
/* Organism # 026 Fitness:  0.000 Error:  0.000                      */
genomestart  26
trait 1 0.0 0.0 0.0 0.0 0.0 0.0 0.0 0.0 
trait 2 0.7793157729028495 0.0 0.6669175658416052 0.3386618058441209 0.0 0.0 0.0 0.2529374955252839 
trait 3 0.3 0.0 0.0 0.0 0.0 0.0 0.0 0.0 
node 1 1 1 1
node 2 1 1 1
node 3 1 1 3
node 4 1 0 2
node 9 1 0 0
node 21 1 0 0
node 22 1 0 0
node 23 1 0 0
node 37 2 0 0
gene  1 1 4 -7.352103618622182 0 1.0 -7.352103618622182 0
gene  2 2 4 1.471499170414878 0 2.0 1.471499170414878 1
gene  3 3 4 2.5370642111808923 0 3.0 2.5370642111808923 1
gene  1 1 9 -12.614795517903417 0 12.0 -12.614795517903417 1
gene  1 9 4 -15.181028362732935 0 13.0 -15.181028362732935 1
gene  2 2 9 -2.4820920836672324 0 23.0 -2.4820920836672324 1
gene  3 3 9 3.4800765764305384 0 30.0 3.4800765764305384 1
gene  1 1 21 9.148082886116562 0 44.0 9.148082886116562 1
gene  1 1 22 -11.02593537254206 0 47.0 -11.02593537254206 1
gene  2 2 23 -0.684277798657507 0 54.0 -0.684277798657507 1
gene  2 23 4 -2.787172327240203 0 55.0 -2.787172327240203 1
gene  1 1 23 -2.9332862417396948 0 63.0 -2.9332862417396948 1
gene  3 1 37 -1.3737052376528662 0 122.0 -1.3737052376528662 1
gene  1 37 9 5.4081236725227395 0 123.0 5.4081236725227395 1
gene  1 21 23 -5.1735264337011735 0 1057.0 -5.1735264337011735 1
gene  1 3 22 2.0997775192949324 0 1103.0 2.0997775192949324 1
gene  1 37 22 -0.07204141709761225 0 1234.0 -0.07204141709761225 1
gene  3 2 21 2.4571852559903355 0 1263.0 2.4571852559903355 1
genomeend 26
/* Organism # 027 Fitness:  0.000 Error:  0.000                      */
genomestart  27
trait 1 0.0 0.0 0.0 0.0 0.0 0.0 0.0 0.0 
trait 2 0.7793157729028495 0.0 0.6669175658416052 0.3386618058441209 0.0 0.0 0.0 0.2529374955252839 
trait 3 0.3 0.0 0.0 0.0 0.0 0.0 0.0 0.0 
node 1 1 1 1
node 2 1 1 1
node 3 1 1 3
node 4 1 0 2
node 9 1 0 0
node 21 1 0 0
node 22 1 0 0
node 23 1 0 0
node 37 2 0 0
gene  1 1 4 -9.403685145120521 0 1.0 -9.403685145120521 0
gene  2 2 4 -0.6500494931058953 0 2.0 -0.6500494931058953 1
gene  3 3 4 0.18604831406608435 0 3.0 0.18604831406608435 1
gene  1 1 9 -9.331407242044751 0 12.0 -9.331407242044751 1
gene  1 9 4 -15.159386377899676 0 13.0 -15.159386377899676 1
gene  2 2 9 -7.149742688217934 0 23.0 -7.149742688217934 1
gene  3 3 9 3.21233855380975 0 30.0 3.21233855380975 1
gene  1 1 21 9.251435343596292 0 44.0 9.251435343596292 1
gene  1 1 22 -11.875441095570745 0 47.0 -11.875441095570745 1
gene  2 2 23 -0.09118467342047903 0 54.0 -0.09118467342047903 1
gene  2 23 4 0.8414278927546872 0 55.0 0.8414278927546872 1
gene  1 1 23 -3.3684483696191427 0 63.0 -3.3684483696191427 1
gene  3 1 37 -0.03739858160905546 0 122.0 -0.03739858160905546 1
gene  1 37 9 1.1391476165044465 0 123.0 1.1391476165044465 1
gene  1 21 23 -3.3737389557861475 0 1057.0 -3.3737389557861475 1
gene  1 3 22 0.09584233819933585 0 1103.0 0.09584233819933585 1
gene  1 37 22 1.757462534135967 0 1234.0 1.757462534135967 1
gene  3 2 21 3.5849798879643453 0 1263.0 3.5849798879643453 1
genomeend 27
/*-------------------------------------------------------------------*/
/* Species # 018         : (size= 005) (AvfFit= 8.000) (Age= 68.000)  */
/*-------------------------------------------------------------------*/
/* Organism # 028 Fitness:  0.000 Error:  0.000                      */
genomestart  28
trait 1 0.1 0.0 0.0 0.0 0.19230303066878282 0.0 0.0 0.0 
trait 2 0.0 0.0 0.09593532814715242 0.05198759219154954 0.5672021634263638 0.8466726157952716 0.9268669003832699 0.0 
trait 3 0.6441850875696402 0.0 0.0 0.0 0.0 0.0 0.0 0.0 
node 1 1 1 1
node 2 1 1 1
node 3 3 1 3
node 4 1 0 2
node 9 1 0 0
node 16 1 0 0
node 44 1 0 0
node 75 2 0 0
node 142 3 0 0
node 211 1 0 0
node 296 1 0 0
gene  1 1 4 2.8396736710859165 0 1.0 2.8396736710859165 1
gene  3 2 4 13.388786803565607 0 2.0 13.388786803565607 1
gene  3 3 4 2.1739210037364973 0 3.0 2.1739210037364973 1
gene  1 1 9 -10.480245089789975 0 12.0 -10.480245089789975 1
gene  3 9 4 -8.544835011835128 0 13.0 -8.544835011835128 1
gene  2 2 9 3.415432097811231 0 23.0 3.415432097811231 1
gene  2 1 16 -5.308744781818293 0 31.0 -5.308744781818293 1
gene  1 16 4 2.6353367445395546 0 32.0 2.6353367445395546 1
gene  3 3 16 -0.8640109547501433 0 42.0 -0.8640109547501433 1
gene  1 2 16 2.61378438828859 0 59.0 2.61378438828859 1
gene  3 3 9 -4.826264779725304 0 101.0 -4.826264779725304 1
gene  1 1 44 -0.6649160419626168 0 153.0 -0.6649160419626168 1
gene  1 44 4 3.9131394710326632 0 154.0 3.9131394710326632 1
gene  1 1 75 -5.586998456668932 0 310.0 -5.586998456668932 1
gene  1 75 9 8.331992147091462 0 311.0 8.331992147091462 1
gene  3 9 44 -1.318623401021194 0 398.0 -1.318623401021194 1
gene  3 75 4 -1.6479294763859014 0 507.0 -1.6479294763859014 1
gene  2 2 142 0.6855346202052522 0 618.0 0.6855346202052522 1
gene  2 142 9 1.3684339430905208 0 619.0 1.3684339430905208 1
gene  1 75 142 1.177037331978539 0 880.0 1.177037331978539 1
gene  1 16 211 7.084503108047176 0 904.0 7.084503108047176 1
gene  1 211 4 0.8694160472470767 0 905.0 0.8694160472470767 1
gene  2 16 142 2.101385969639388 0 980.0 2.101385969639388 1
gene  2 1 142 1.1278412423500077 0 1164.0 1.1278412423500077 1
gene  2 2 296 -0.737434883047581 0 1261.0 -0.737434883047581 1
gene  2 296 142 0.7888445466821801 0 1262.0 0.7888445466821801 1
gene  1 296 44 -1.9451309837851951 0 1316.0 -1.9451309837851951 1
gene  1 75 211 -2.2491607509639406 0 1404.0 -2.2491607509639406 1
genomeend 28
/* Organism # 029 Fitness:  0.000 Error:  0.000                      */
genomestart  29
trait 1 0.1 0.0 0.0 0.0 0.19230303066878282 0.0 0.0 0.0 
trait 2 0.0 0.0 0.09593532814715242 0.05198759219154954 0.5672021634263638 0.8466726157952716 0.9268669003832699 0.0 
trait 3 0.6441850875696402 0.0 0.0 0.0 0.0 0.0 0.0 0.0 
node 1 1 1 1
node 2 1 1 1
node 3 3 1 3
node 4 1 0 2
node 9 1 0 0
node 16 1 0 0
node 44 1 0 0
node 75 2 0 0
node 142 3 0 0
node 211 1 0 0
node 296 1 0 0
gene  1 1 4 11.270646273787907 0 1.0 11.270646273787907 1
gene  3 2 4 10.033726760052446 0 2.0 10.033726760052446 1
gene  3 3 4 -1.6045814775100187 0 3.0 -1.6045814775100187 1
gene  1 1 9 -13.162312246196155 0 12.0 -13.162312246196155 1
gene  3 9 4 -5.477325133791704 0 13.0 -5.477325133791704 1
gene  2 2 9 -0.8128697276209944 0 23.0 -0.8128697276209944 1
gene  2 1 16 -2.2012540985322415 0 31.0 -2.2012540985322415 1
gene  1 16 4 -4.9018501948044575 0 32.0 -4.9018501948044575 1
gene  3 3 16 8.96429696459089 0 42.0 8.96429696459089 1
gene  1 2 16 0.6137961205498557 0 59.0 0.6137961205498557 1
gene  3 3 9 -1.812927406981118 0 101.0 -1.812927406981118 1
gene  1 1 44 2.6953106721887408 0 153.0 2.6953106721887408 1
gene  1 44 4 7.4111211786982105 0 154.0 7.4111211786982105 1
gene  1 1 75 -7.7381331761664 0 310.0 -7.7381331761664 1
gene  1 75 9 6.960454825103629 0 311.0 6.960454825103629 1
gene  3 9 44 0.3093769997670381 0 398.0 0.3093769997670381 1
gene  3 75 4 -0.6274025944735437 0 507.0 -0.6274025944735437 1
gene  2 2 142 4.293853391368719 0 618.0 4.293853391368719 1
gene  2 142 9 -1.0942792396998298 0 619.0 -1.0942792396998298 1
gene  1 75 142 0.6314396022192739 0 880.0 0.6314396022192739 1
gene  1 16 211 6.4621991473658635 0 904.0 6.4621991473658635 1
gene  1 211 4 -1.4707843987534241 0 905.0 -1.4707843987534241 1
gene  2 16 142 -2.6093599382050523 0 980.0 -2.6093599382050523 1
gene  2 1 142 0.3228914148914974 0 1164.0 0.3228914148914974 1
gene  2 2 296 0.9366514122429972 0 1261.0 0.9366514122429972 1
gene  2 296 142 1.4932900525132322 0 1262.0 1.4932900525132322 1
gene  1 296 44 1.1138290185714212 0 1316.0 1.1138290185714212 1
gene  1 75 211 2.474620493922602 0 1404.0 2.474620493922602 1
gene  2 3 296 -2.935151829700431 0 1529.0 -2.935151829700431 1
genomeend 29
/* Organism # 030 Fitness:  0.000 Error:  0.000                      */
genomestart  30
trait 1 0.1 0.0 0.0 0.0 0.19230303066878282 0.0 0.0 0.0 
trait 2 0.0 0.0 0.09593532814715242 0.05198759219154954 0.5672021634263638 0.8466726157952716 0.9268669003832699 0.0 
trait 3 0.6441850875696402 0.0 0.0 0.0 0.0 0.0 0.0 0.0 
node 1 1 1 1
node 2 1 1 1
node 3 3 1 3
node 4 1 0 2
node 9 1 0 0
node 16 1 0 0
node 44 1 0 0
node 75 2 0 0
node 142 3 0 0
node 211 1 0 0
node 296 1 0 0
gene  1 1 4 10.610092186301632 0 1.0 10.610092186301632 1
gene  3 2 4 1.8506536764791126 0 2.0 1.8506536764791126 1
gene  3 3 4 -1.6045814775100187 0 3.0 -1.6045814775100187 1
gene  1 1 9 -15.639347253223471 0 12.0 -15.639347253223471 1
gene  3 9 4 -7.064234274522844 0 13.0 -7.064234274522844 1
gene  2 2 9 0.6411341462036475 0 23.0 0.6411341462036475 1
gene  2 1 16 -4.314400186950005 0 31.0 -4.314400186950005 1
gene  1 16 4 -4.9018501948044575 0 32.0 -4.9018501948044575 1
gene  3 3 16 8.96429696459089 0 42.0 8.96429696459089 1
gene  1 2 16 2.059162495409554 0 59.0 2.059162495409554 1
gene  3 3 9 -4.0198364173986 0 101.0 -4.0198364173986 1
gene  1 1 44 0.665609827979269 0 153.0 0.665609827979269 1
gene  1 44 4 7.4111211786982105 0 154.0 7.4111211786982105 1
gene  1 1 75 -9.429649711439252 0 310.0 -9.429649711439252 1
gene  1 75 9 -1.2076436313260346 0 311.0 -1.2076436313260346 1
gene  3 9 44 0.3093769997670381 0 398.0 0.3093769997670381 1
gene  3 75 4 0.6552328130466174 0 507.0 0.6552328130466174 1
gene  2 2 142 2.44401425607328 0 618.0 2.44401425607328 1
gene  2 142 9 -0.5231978375152196 0 619.0 -0.5231978375152196 1
gene  1 75 142 0.07106721998862275 0 880.0 0.07106721998862275 1
gene  1 16 211 7.156778903289979 0 904.0 7.156778903289979 1
gene  1 211 4 0.22821925135709575 0 905.0 0.22821925135709575 1
gene  2 16 142 -4.0041399181637765 0 980.0 -4.0041399181637765 1
gene  2 1 142 -2.141160711297961 0 1164.0 -2.141160711297961 1
gene  2 2 296 2.952376187309567 0 1261.0 2.952376187309567 1
gene  2 296 142 1.6072748147550309 0 1262.0 1.6072748147550309 1
gene  1 296 44 0.4900966908935503 0 1316.0 0.4900966908935503 1
gene  1 75 211 1.0934512286023859 0 1404.0 1.0934512286023859 1
genomeend 30
/* Organism # 031 Fitness:  0.000 Error:  0.000                      */
genomestart  31
trait 1 0.1 0.0 0.0 0.0 0.19230303066878282 0.0 0.0 0.0 
trait 2 0.0 0.0 0.09593532814715242 0.05198759219154954 0.5672021634263638 0.8466726157952716 0.9268669003832699 0.0 
trait 3 0.6441850875696402 0.0 0.0 0.0 0.0 0.0 0.0 0.0 
node 1 1 1 1
node 2 1 1 1
node 3 3 1 3
node 4 1 0 2
node 9 1 0 0
node 16 1 0 0
node 44 1 0 0
node 75 2 0 0
node 142 3 0 0
node 211 1 0 0
node 296 1 0 0
gene  1 1 4 4.312472622952145 0 1.0 4.312472622952145 1
gene  3 2 4 13.388786803565607 0 2.0 13.388786803565607 1
gene  3 3 4 2.1488256638423175 0 3.0 2.1488256638423175 1
gene  1 1 9 -9.187561649317065 0 12.0 -9.187561649317065 1
gene  3 9 4 -7.1378170236305944 0 13.0 -7.1378170236305944 1
gene  2 2 9 3.6660927044674905 0 23.0 3.6660927044674905 1
gene  2 1 16 0.7758962358300947 0 31.0 0.7758962358300947 1
gene  1 16 4 4.595933108199731 0 32.0 4.595933108199731 1
gene  3 3 16 -3.1242805872443276 0 42.0 -3.1242805872443276 1
gene  1 2 16 0.3758370056823579 0 59.0 0.3758370056823579 1
gene  3 3 9 0.484614632998151 0 101.0 0.484614632998151 1
gene  1 1 44 -2.6167071475348527 0 153.0 -2.6167071475348527 1
gene  1 44 4 1.7588755618697185 0 154.0 1.7588755618697185 1
gene  1 1 75 -3.128491091750515 0 310.0 -3.128491091750515 1
gene  1 75 9 8.737604621847643 0 311.0 8.737604621847643 1
gene  3 9 44 2.0690162825465883 0 398.0 2.0690162825465883 1
gene  3 75 4 0.3764863183637659 0 507.0 0.3764863183637659 1
gene  2 2 142 -1.6582870155826943 0 618.0 -1.6582870155826943 1
gene  2 142 9 3.0100229506201117 0 619.0 3.0100229506201117 1
gene  1 75 142 2.085420785073334 0 880.0 2.085420785073334 1
gene  1 16 211 7.084503108047176 0 904.0 7.084503108047176 1
gene  1 211 4 1.210040560060345 0 905.0 1.210040560060345 1
gene  2 16 142 2.101385969639388 0 980.0 2.101385969639388 1
gene  2 1 142 1.1278412423500077 0 1164.0 1.1278412423500077 1
gene  2 2 296 -2.437696759211637 0 1261.0 -2.437696759211637 1
gene  2 296 142 0.8254019716327025 0 1262.0 0.8254019716327025 1
gene  1 296 44 -1.2303275975620467 0 1316.0 -1.2303275975620467 1
gene  1 75 211 -2.411276909206205 0 1404.0 -2.411276909206205 1
genomeend 31
/* Organism # 032 Fitness:  0.000 Error:  0.000                      */
genomestart  32
trait 1 0.1 0.0 0.0 0.0 0.19230303066878282 0.0 0.0 0.0 
trait 2 0.0 0.0 0.09593532814715242 0.05198759219154954 0.5672021634263638 0.8466726157952716 0.9268669003832699 0.0 
trait 3 0.6441850875696402 0.0 0.0 0.0 0.0 0.0 0.0 0.0 
node 1 1 1 1
node 2 1 1 1
node 3 3 1 3
node 4 1 0 2
node 9 1 0 0
node 16 1 0 0
node 44 1 0 0
node 75 2 0 0
node 142 3 0 0
node 211 1 0 0
node 296 1 0 0
gene  1 1 4 2.8396736710859165 0 1.0 2.8396736710859165 1
gene  3 2 4 13.388786803565607 0 2.0 13.388786803565607 1
gene  3 3 4 2.1739210037364973 0 3.0 2.1739210037364973 1
gene  1 1 9 -10.480245089789975 0 12.0 -10.480245089789975 1
gene  3 9 4 -8.544835011835128 0 13.0 -8.544835011835128 1
gene  2 2 9 3.415432097811231 0 23.0 3.415432097811231 1
gene  2 1 16 -5.308744781818293 0 31.0 -5.308744781818293 1
gene  1 16 4 2.6353367445395546 0 32.0 2.6353367445395546 1
gene  3 3 16 -0.8640109547501433 0 42.0 -0.8640109547501433 1
gene  1 2 16 2.61378438828859 0 59.0 2.61378438828859 1
gene  3 3 9 -4.826264779725304 0 101.0 -4.826264779725304 1
gene  1 1 44 -0.6649160419626168 0 153.0 -0.6649160419626168 1
gene  1 44 4 3.9131394710326632 0 154.0 3.9131394710326632 1
gene  1 1 75 -5.586998456668932 0 310.0 -5.586998456668932 1
gene  1 75 9 8.331992147091462 0 311.0 8.331992147091462 1
gene  3 9 44 -1.318623401021194 0 398.0 -1.318623401021194 1
gene  3 75 4 -1.6479294763859014 0 507.0 -1.6479294763859014 1
gene  2 2 142 0.6855346202052522 0 618.0 0.6855346202052522 1
gene  2 142 9 1.3684339430905208 0 619.0 1.3684339430905208 1
gene  1 75 142 1.177037331978539 0 880.0 1.177037331978539 1
gene  1 16 211 7.084503108047176 0 904.0 7.084503108047176 1
gene  1 211 4 0.8694160472470767 0 905.0 0.8694160472470767 1
gene  2 16 142 2.101385969639388 0 980.0 2.101385969639388 1
gene  2 1 142 1.1278412423500077 0 1164.0 1.1278412423500077 1
gene  2 2 296 -0.737434883047581 0 1261.0 -0.737434883047581 1
gene  2 296 142 0.7888445466821801 0 1262.0 0.7888445466821801 1
gene  1 296 44 -1.9451309837851951 0 1316.0 -1.9451309837851951 1
gene  1 75 211 -2.2491607509639406 0 1404.0 -2.2491607509639406 1
gene  2 75 44 -2.1089118872506862 0 1530.0 -2.1089118872506862 1
genomeend 32
/*-------------------------------------------------------------------*/
/* Species # 021         : (size= 003) (AvfFit= 4.705) (Age= 66.000)  */
/*-------------------------------------------------------------------*/
/* Organism # 033 Fitness:  0.000 Error:  0.000                      */
genomestart  33
trait 1 0.1 0.0 0.0 0.0 0.0 0.0 0.0 0.0 
trait 2 0.2 0.0028294838338946667 0.18709015029743614 0.05198759219154954 0.0 0.1232631512304428 0.0 0.07431155475619289 
trait 3 0.36411061517298493 0.3355442403240643 0.01810970363673481 0.0 0.7575952209880747 0.4962109283202015 0.0 0.0 
node 1 1 1 1
node 2 1 1 1
node 3 3 1 3
node 4 1 0 2
node 9 1 0 0
node 38 1 0 0
node 312 1 0 0
gene  1 1 4 -10.441393951020384 0 1.0 -10.441393951020384 1
gene  2 2 4 -1.0822932942186214 0 2.0 -1.0822932942186214 0
gene  3 3 4 -3.701702914560121 0 3.0 -3.701702914560121 1
gene  1 1 9 11.498154089872074 0 12.0 11.498154089872074 1
gene  1 9 4 15.515316218647614 0 13.0 15.515316218647614 1
gene  2 2 9 -1.299727868834335 0 23.0 -1.299727868834335 1
gene  3 3 9 -6.841900352006749 0 30.0 -6.841900352006749 1
gene  1 1 38 -7.015136496313919 0 124.0 -7.015136496313919 1
gene  1 38 4 3.9628153618641164 0 125.0 3.9628153618641164 1
gene  3 38 9 1.1626887892472348 0 177.0 1.1626887892472348 1
gene  1 3 38 0.6363219342859712 0 367.0 0.6363219342859712 1
gene  2 2 38 3.007928813488063 0 1034.0 3.007928813488063 1
gene  2 2 312 2.453203616482683 0 1327.0 2.453203616482683 1
gene  2 312 4 2.136672583959192 0 1328.0 2.136672583959192 1
genomeend 33
/* Organism # 034 Fitness:  0.000 Error:  0.000                      */
genomestart  34
trait 1 0.1 0.0 0.0 0.0 0.0 0.0 0.0 0.0 
trait 2 0.2 0.0028294838338946667 0.18709015029743614 0.05198759219154954 0.0 0.1232631512304428 0.0 0.07431155475619289 
trait 3 0.36411061517298493 0.3355442403240643 0.01810970363673481 0.0 0.7575952209880747 0.4962109283202015 0.0 0.0 
node 1 1 1 1
node 2 1 1 1
node 3 3 1 3
node 4 1 0 2
node 9 1 0 0
node 38 1 0 0
node 312 1 0 0
gene  1 1 4 -9.461879416045884 0 1.0 -9.461879416045884 1
gene  2 2 4 4.564490501561137 0 2.0 4.564490501561137 0
gene  3 3 4 -4.170447938336569 0 3.0 -4.170447938336569 1
gene  1 1 9 10.892563828013477 0 12.0 10.892563828013477 1
gene  1 9 4 14.428970892921923 0 13.0 14.428970892921923 1
gene  2 2 9 -5.686073042911745 0 23.0 -5.686073042911745 1
gene  3 3 9 -2.7867726150452423 0 30.0 -2.7867726150452423 1
gene  2 1 38 -9.26266820032195 0 124.0 -9.26266820032195 1
gene  1 38 4 -0.38382154010579406 0 125.0 -0.38382154010579406 1
gene  3 38 9 2.53041134982054 0 177.0 2.53041134982054 1
gene  1 3 38 -2.5911028396437663 0 367.0 -2.5911028396437663 1
gene  2 2 38 0.6274234081045682 0 1034.0 0.6274234081045682 1
gene  2 2 312 -0.5483437555543704 0 1327.0 -0.5483437555543704 1
gene  2 312 4 1.447334905242685 0 1328.0 1.447334905242685 1
genomeend 34
/* Organism # 035 Fitness:  0.000 Error:  0.000                      */
genomestart  35
trait 1 0.1 0.0 0.0 0.0 0.0 0.0 0.0 0.0 
trait 2 0.2 0.0028294838338946667 0.18709015029743614 0.05198759219154954 0.0 0.1232631512304428 0.0 0.07431155475619289 
trait 3 0.36411061517298493 0.3355442403240643 0.01810970363673481 0.0 0.7575952209880747 0.4962109283202015 0.0 0.0 
node 1 1 1 1
node 2 1 1 1
node 3 3 1 3
node 4 1 0 2
node 9 1 0 0
node 38 1 0 0
node 312 1 0 0
gene  1 1 4 -10.351805972201106 0 1.0 -10.351805972201106 1
gene  2 2 4 3.4036630443588662 0 2.0 3.4036630443588662 0
gene  3 3 4 -4.5526119168408545 0 3.0 -4.5526119168408545 1
gene  1 1 9 10.625705439338283 0 12.0 10.625705439338283 1
gene  1 9 4 16.266823377498934 0 13.0 16.266823377498934 1
gene  2 2 9 -5.463779337764704 0 23.0 -5.463779337764704 1
gene  3 3 9 -4.993293278302429 0 30.0 -4.993293278302429 1
gene  2 1 38 -10.040018669300238 0 124.0 -10.040018669300238 1
gene  1 38 4 1.103510020928145 0 125.0 1.103510020928145 1
gene  3 38 9 2.0854287220663723 0 177.0 2.0854287220663723 1
gene  1 3 38 -0.7216716414332318 0 367.0 -0.7216716414332318 1
gene  2 2 38 -0.6402528278028647 0 1034.0 -0.6402528278028647 1
gene  2 2 312 0.7520264173019431 0 1327.0 0.7520264173019431 1
gene  2 312 4 3.4449761454675345 0 1328.0 3.4449761454675345 1
genomeend 35
/*-------------------------------------------------------------------*/
/* Species # 022         : (size= 003) (AvfFit= 5.721) (Age= 66.000)  */
/*-------------------------------------------------------------------*/
/* Organism # 036 Fitness:  0.000 Error:  0.000                      */
genomestart  36
trait 1 0.1 0.0 0.0 0.0 0.0 0.0 0.0 0.0 
trait 2 0.2 1.6130074112463656E-4 0.12364985839711991 0.00974767353591554 0.0 0.1232631512304428 0.0 0.022593536837987385 
trait 3 0.0 0.05525702547903588 0.0 0.7678462095914034 0.6846335385076469 0.0 0.0 0.0 
node 1 1 1 1
node 2 1 1 1
node 3 1 1 3
node 4 1 0 2
node 9 1 0 0
node 21 1 0 0
node 22 1 0 0
node 23 1 0 0
node 42 1 0 0
node 49 1 0 0
node 178 1 0 0
node 267 1 0 0
gene  1 1 4 0.6577706520783313 0 1.0 0.6577706520783313 1
gene  2 2 4 2.330838000207346 0 2.0 2.330838000207346 1
gene  3 3 4 -0.4538819255552863 0 3.0 -0.4538819255552863 1
gene  1 1 9 -0.8949778732596783 0 12.0 -0.8949778732596783 1
gene  1 9 4 0.8218192970627958 0 13.0 0.8218192970627958 1
gene  2 2 9 -4.95160011747117 0 23.0 -4.95160011747117 1
gene  3 3 9 -1.2109377204988891 0 30.0 -1.2109377204988891 1
gene  3 1 21 -0.04975615038793413 0 44.0 -0.04975615038793413 1
gene  1 1 22 -0.43701049304220474 0 47.0 -0.43701049304220474 1
gene  2 2 23 -1.451332218595697 0 54.0 -1.451332218595697 1
gene  2 23 4 1.4533329897983904 0 55.0 1.4533329897983904 1
gene  1 1 42 -2.729822148345673 0 142.0 -2.729822148345673 1
gene  1 42 4 4.37227608251074 0 143.0 4.37227608251074 1
gene  3 2 49 1.0769730845461176 0 184.0 1.0769730845461176 1
gene  2 49 4 -0.8062836111560241 0 185.0 -0.8062836111560241 1
gene  1 2 22 -14.955114727096387 0 283.0 -14.955114727096387 1
gene  3 9 21 0.46134015626258074 0 323.0 0.46134015626258074 1
gene  3 1 49 0.5808813765886498 0 580.0 0.5808813765886498 1
gene  1 3 49 -2.0171728677859018 0 668.0 -2.0171728677859018 1
gene  3 2 178 1.4558425745789476 0 761.0 1.4558425745789476 1
gene  3 178 49 7.872819568044464 0 762.0 7.872819568044464 1
gene  3 42 23 6.396109745727876 0 832.0 6.396109745727876 1
gene  3 178 4 -0.33969920456102165 0 936.0 -0.33969920456102165 1
gene  2 23 267 2.0909703951832053 0 1150.0 2.0909703951832053 1
gene  2 267 4 -1.5519628272834858 0 1151.0 -1.5519628272834858 1
gene  2 178 267 10.288940477711048 0 1472.0 10.288940477711048 1
genomeend 36
/* Organism # 037 Fitness:  0.000 Error:  0.000                      */
genomestart  37
trait 1 0.1 0.0 0.0 0.0 0.0 0.0 0.0 0.0 
trait 2 0.2 1.6130074112463656E-4 0.12364985839711991 0.00974767353591554 0.0 0.1232631512304428 0.0 0.022593536837987385 
trait 3 0.0 0.05525702547903588 0.0 0.7678462095914034 0.6846335385076469 0.0 0.0 0.0 
node 1 1 1 1
node 2 1 1 1
node 3 1 1 3
node 4 1 0 2
node 9 1 0 0
node 21 1 0 0
node 22 1 0 0
node 23 1 0 0
node 42 1 0 0
node 49 1 0 0
node 178 1 0 0
node 267 1 0 0
gene  1 1 4 -0.059525114536587154 0 1.0 -0.059525114536587154 1
gene  2 2 4 -3.071642283803443 0 2.0 -3.071642283803443 1
gene  3 3 4 -1.9305232152858838 0 3.0 -1.9305232152858838 1
gene  1 1 9 -3.105695040546313 0 12.0 -3.105695040546313 1
gene  1 9 4 -0.3067027695236082 0 13.0 -0.3067027695236082 1
gene  2 2 9 -3.1946092722728165 0 23.0 -3.1946092722728165 1
gene  3 3 9 3.236936231157362 0 30.0 3.236936231157362 1
gene  3 1 21 1.3954376333756566 0 44.0 1.3954376333756566 1
gene  1 1 22 -0.9785197880113317 0 47.0 -0.9785197880113317 1
gene  2 2 23 -1.9016238569946609E-4 0 54.0 -1.9016238569946609E-4 1
gene  2 23 4 0.035427484237415596 0 55.0 0.035427484237415596 0
gene  1 1 42 -5.4041603029563605 0 142.0 -5.4041603029563605 1
gene  1 42 4 4.944232193524666 0 143.0 4.944232193524666 1
gene  3 2 49 -1.5675988253507063 0 184.0 -1.5675988253507063 1
gene  2 49 4 1.1913779198779693 0 185.0 1.1913779198779693 1
gene  1 2 22 -2.2368792239702904 0 283.0 -2.2368792239702904 1
gene  3 9 21 2.1618094394866385 0 323.0 2.1618094394866385 1
gene  3 1 49 -5.249169130198889 0 580.0 -5.249169130198889 1
gene  1 3 49 2.22073396361994 0 668.0 2.22073396361994 1
gene  3 2 178 7.2477963409379775 0 761.0 7.2477963409379775 1
gene  3 178 49 3.8588614630732665 0 762.0 3.8588614630732665 1
gene  3 42 23 2.9207293154685607 0 832.0 2.9207293154685607 1
gene  3 178 4 2.532574438049807 0 936.0 2.532574438049807 1
gene  2 23 267 -4.39638867937221 0 1150.0 -4.39638867937221 1
gene  2 267 4 1.2143795132553246 0 1151.0 1.2143795132553246 1
gene  2 178 267 6.789903778183998 0 1472.0 6.789903778183998 1
gene  1 42 267 -1.706304912603822 0 1541.0 -1.706304912603822 1
genomeend 37
/* Organism # 038 Fitness:  0.000 Error:  0.000                      */
genomestart  38
trait 1 0.1 0.0 0.0 0.0 0.0 0.0 0.0 0.0 
trait 2 0.2 1.6130074112463656E-4 0.12364985839711991 0.00974767353591554 0.0 0.1232631512304428 0.0 0.022593536837987385 
trait 3 0.0 0.05525702547903588 0.0 0.7678462095914034 0.6846335385076469 0.0 0.0 0.0 
node 1 1 1 1
node 2 1 1 1
node 3 1 1 3
node 4 1 0 2
node 9 1 0 0
node 21 1 0 0
node 22 1 0 0
node 23 1 0 0
node 42 1 0 0
node 49 1 0 0
node 178 1 0 0
node 267 1 0 0
gene  1 1 4 -1.2243963290518152 0 1.0 -1.2243963290518152 1
gene  2 2 4 1.070546957354201 0 2.0 1.070546957354201 1
gene  3 3 4 0.954937356375934 0 3.0 0.954937356375934 1
gene  1 1 9 -0.20759514318886085 0 12.0 -0.20759514318886085 1
gene  1 9 4 2.548272922362573 0 13.0 2.548272922362573 1
gene  2 2 9 -3.495589291241081 0 23.0 -3.495589291241081 1
gene  3 3 9 2.1577254506667787 0 30.0 2.1577254506667787 1
gene  3 1 21 0.48314441885333004 0 44.0 0.48314441885333004 1
gene  1 1 22 -1.4595725771287247 0 47.0 -1.4595725771287247 1
gene  2 2 23 0.5789356023756045 0 54.0 0.5789356023756045 1
gene  2 23 4 1.6902657845069449 0 55.0 1.6902657845069449 1
gene  1 1 42 -2.4094093623070303 0 142.0 -2.4094093623070303 1
gene  1 42 4 4.974498688240881 0 143.0 4.974498688240881 1
gene  3 2 49 3.389939890481422 0 184.0 3.389939890481422 1
gene  2 49 4 0.6209053189625591 0 185.0 0.6209053189625591 1
gene  1 2 22 -14.071590976854267 0 283.0 -14.071590976854267 1
gene  3 9 21 1.9692975563166393 0 323.0 1.9692975563166393 1
gene  3 1 49 -0.6087918576244935 0 580.0 -0.6087918576244935 1
gene  1 3 49 0.5018396633893143 0 668.0 0.5018396633893143 1
gene  3 2 178 6.772077522075193 0 761.0 6.772077522075193 1
gene  3 178 49 6.600528349055689 0 762.0 6.600528349055689 1
gene  3 42 23 7.2984156241633675 0 832.0 7.2984156241633675 1
gene  3 178 4 -0.6976700350044536 0 936.0 -0.6976700350044536 1
gene  2 23 267 1.0031367829904996 0 1150.0 1.0031367829904996 1
gene  2 267 4 -3.5091057783156945 0 1151.0 -3.5091057783156945 1
gene  2 178 267 11.144145722346002 0 1472.0 11.144145722346002 1
genomeend 38
/*-------------------------------------------------------------------*/
/* Species # 023         : (size= 005) (AvfFit= 7.750) (Age= 66.000)  */
/*-------------------------------------------------------------------*/
/* Organism # 039 Fitness:  0.000 Error:  0.000                      */
genomestart  39
trait 1 0.1 0.0 0.0 0.0 0.19230303066878282 0.0 0.0 0.0 
trait 2 0.0 0.0 0.910665747869864 0.159906009157318 0.0 0.0 0.05972356901047049 0.29642266739897305 
trait 3 0.3 0.0 0.0 0.4067517447459279 0.10262468232216404 0.48321346549070143 0.0 0.0 
node 1 2 1 1
node 2 2 1 1
node 3 1 1 3
node 4 1 0 2
node 9 1 0 0
node 16 1 0 0
node 35 1 0 0
node 234 1 0 0
gene  1 1 4 0.4306516025553444 0 1.0 0.4306516025553444 1
gene  2 2 4 1.6460879333144796 0 2.0 1.6460879333144796 1
gene  3 3 4 -12.718350141497043 0 3.0 -12.718350141497043 1
gene  3 1 9 -1.5694340105239417 0 12.0 -1.5694340105239417 0
gene  2 9 4 2.3970174779655475 0 13.0 2.3970174779655475 1
gene  2 2 9 0.8392811998189567 0 23.0 0.8392811998189567 1
gene  1 1 16 4.295131425456412 0 31.0 4.295131425456412 1
gene  1 16 4 16.93575502699357 0 32.0 16.93575502699357 1
gene  1 3 16 -3.1678096064015966 0 42.0 -3.1678096064015966 1
gene  2 2 16 -18.669166582146197 0 59.0 -18.669166582146197 1
gene  1 3 9 2.540790717936849 0 101.0 2.540790717936849 1
gene  2 9 35 -4.393322116395966 0 109.0 -4.393322116395966 1
gene  2 35 4 -3.9780551028157447 0 110.0 -3.9780551028157447 1
gene  1 1 35 5.7173692832691305 0 145.0 5.7173692832691305 1
gene  1 16 9 -1.5685606079340304 0 170.0 -1.5685606079340304 1
gene  2 3 35 1.6684458107121305 0 211.0 1.6684458107121305 1
gene  3 2 35 1.941588070046663 0 443.0 1.941588070046663 1
gene  2 16 35 -1.1616390605500553 0 559.0 -1.1616390605500553 1
gene  1 1 234 2.5834736598426553 0 1019.0 2.5834736598426553 1
gene  1 234 9 -0.5572009838098202 0 1020.0 -0.5572009838098202 1
genomeend 39
/* Organism # 040 Fitness:  0.000 Error:  0.000                      */
genomestart  40
trait 1 0.9616982893140648 0.0 0.16501971454220576 0.0 0.19230303066878282 0.008640429542154382 0.0 0.0 
trait 2 0.0 0.0 0.910665747869864 0.159906009157318 0.0 0.0 0.05972356901047049 0.29642266739897305 
trait 3 0.3 0.0 0.0 0.4067517447459279 0.10262468232216404 0.48321346549070143 0.0 0.0 
node 1 2 1 1
node 2 2 1 1
node 3 1 1 3
node 4 1 0 2
node 9 1 0 0
node 16 1 0 0
node 35 1 0 0
node 234 1 0 0
gene  1 1 4 1.5710835711636375 0 1.0 1.5710835711636375 1
gene  2 2 4 0.28248844652632527 0 2.0 0.28248844652632527 1
gene  3 3 4 -10.599336262201396 0 3.0 -10.599336262201396 1
gene  1 1 9 -1.7359264678971733 0 12.0 -1.7359264678971733 0
gene  2 9 4 4.5479846631553915 0 13.0 4.5479846631553915 1
gene  2 2 9 -2.221727242877079 0 23.0 -2.221727242877079 1
gene  1 1 16 4.07456523418289 0 31.0 4.07456523418289 1
gene  1 16 4 18.296958133726967 0 32.0 18.296958133726967 1
gene  1 3 16 0.14614341608106352 0 42.0 0.14614341608106352 1
gene  2 2 16 -19.30460030705214 0 59.0 -19.30460030705214 1
gene  1 3 9 2.589377641060408 0 101.0 2.589377641060408 1
gene  2 9 35 1.7722081267997212 0 109.0 1.7722081267997212 1
gene  2 35 4 -0.3604948096006342 0 110.0 -0.3604948096006342 1
gene  1 1 35 8.062253149004837 0 145.0 8.062253149004837 1
gene  1 16 9 -3.8793093360484776 0 170.0 -3.8793093360484776 1
gene  2 3 35 2.9134491698475076 0 211.0 2.9134491698475076 1
gene  3 2 35 2.064960906600727 0 443.0 2.064960906600727 1
gene  2 16 35 -4.341968206099333 0 559.0 -4.341968206099333 1
gene  1 1 234 -1.3551594310851869 0 1019.0 -1.3551594310851869 1
gene  1 234 9 -1.9690082086176632 0 1020.0 -1.9690082086176632 1
genomeend 40
/* Organism # 041 Fitness:  0.000 Error:  0.000                      */
genomestart  41
trait 1 0.1 0.0 0.0 0.0 0.19230303066878282 0.0 0.0 0.0 
trait 2 0.0 0.0 0.910665747869864 0.159906009157318 0.0 0.0 0.05972356901047049 0.29642266739897305 
trait 3 0.3 0.0 0.0 0.4067517447459279 0.10262468232216404 0.48321346549070143 0.0 0.0 
node 1 2 1 1
node 2 2 1 1
node 3 1 1 3
node 4 1 0 2
node 9 1 0 0
node 16 1 0 0
node 35 1 0 0
node 234 1 0 0
gene  1 1 4 -0.09754350994772443 0 1.0 -0.09754350994772443 1
gene  2 2 4 -0.3010274824979822 0 2.0 -0.3010274824979822 1
gene  3 3 4 -13.255754279432324 0 3.0 -13.255754279432324 1
gene  1 1 9 2.87172533410531 0 12.0 2.87172533410531 0
gene  2 9 4 0.39968505859196135 0 13.0 0.39968505859196135 1
gene  2 2 9 0.9819253780752955 0 23.0 0.9819253780752955 1
gene  1 1 16 7.468035134313178 0 31.0 7.468035134313178 1
gene  1 16 4 18.32454111717981 0 32.0 18.32454111717981 1
gene  1 3 16 -0.5428282500261454 0 42.0 -0.5428282500261454 1
gene  2 2 16 -18.071606011314163 0 59.0 -18.071606011314163 1
gene  1 3 9 -1.9561686815493862 0 101.0 -1.9561686815493862 1
gene  2 9 35 -4.354209121218335 0 109.0 -4.354209121218335 1
gene  2 35 4 -1.4696604207364583 0 110.0 -1.4696604207364583 1
gene  1 1 35 7.2030888634477614 0 145.0 7.2030888634477614 1
gene  1 16 9 -4.8806785555758 0 170.0 -4.8806785555758 1
gene  2 3 35 3.8352962452025863 0 211.0 3.8352962452025863 1
gene  3 2 35 0.2626702207700482 0 443.0 0.2626702207700482 1
gene  2 16 35 -0.04850775856416689 0 559.0 -0.04850775856416689 1
gene  1 1 234 0.41202951858256714 0 1019.0 0.41202951858256714 1
gene  1 234 9 1.8509417317528485 0 1020.0 1.8509417317528485 1
genomeend 41
/* Organism # 042 Fitness:  0.000 Error:  0.000                      */
genomestart  42
trait 1 0.1 0.0 0.0 0.0 0.19230303066878282 0.0 0.0 0.0 
trait 2 0.0 0.0 0.910665747869864 0.159906009157318 0.0 0.0 0.05972356901047049 0.29642266739897305 
trait 3 0.3 0.0 0.0 0.4067517447459279 0.10262468232216404 0.48321346549070143 0.0 0.0 
node 1 2 1 1
node 2 2 1 1
node 3 1 1 3
node 4 1 0 2
node 9 1 0 0
node 16 1 0 0
node 35 1 0 0
node 234 1 0 0
gene  1 1 4 2.315800035493319 0 1.0 2.315800035493319 1
gene  2 2 4 1.1136325982452338 0 2.0 1.1136325982452338 1
gene  3 3 4 -12.785727919630046 0 3.0 -12.785727919630046 1
gene  1 1 9 -1.6425135430037996 0 12.0 -1.6425135430037996 0
gene  2 9 4 1.9337564822888975 0 13.0 1.9337564822888975 1
gene  2 2 9 2.727202648786508 0 23.0 2.727202648786508 1
gene  1 1 16 6.999188652647925 0 31.0 6.999188652647925 1
gene  1 16 4 20.044420884598235 0 32.0 20.044420884598235 1
gene  1 3 16 -0.7764034764982093 0 42.0 -0.7764034764982093 1
gene  2 2 16 -16.319731804915435 0 59.0 -16.319731804915435 1
gene  1 3 9 0.2089596301326388 0 101.0 0.2089596301326388 1
gene  2 9 35 -5.267798425247422 0 109.0 -5.267798425247422 1
gene  2 35 4 -3.072571357059242 0 110.0 -3.072571357059242 1
gene  1 1 35 5.779562839799207 0 145.0 5.779562839799207 1
gene  1 16 9 -4.241285103935899 0 170.0 -4.241285103935899 1
gene  2 3 35 6.21024840981973 0 211.0 6.21024840981973 1
gene  3 2 35 2.311317945780731 0 443.0 2.311317945780731 1
gene  2 16 35 -1.6192896464561435 0 559.0 -1.6192896464561435 1
gene  1 1 234 -1.9454147582757084 0 1019.0 -1.9454147582757084 1
gene  1 234 9 -1.6291638081311697 0 1020.0 -1.6291638081311697 1
genomeend 42
/* Organism # 043 Fitness:  0.000 Error:  0.000                      */
genomestart  43
trait 1 0.1 0.0 0.0 0.0 0.19230303066878282 0.0 0.0 0.0 
trait 2 0.0 0.0 0.910665747869864 0.159906009157318 0.0 0.0 0.05972356901047049 0.29642266739897305 
trait 3 0.3 0.0 0.0 0.4067517447459279 0.10262468232216404 0.48321346549070143 0.0 0.0 
node 1 2 1 1
node 2 2 1 1
node 3 1 1 3
node 4 1 0 2
node 9 1 0 0
node 16 1 0 0
node 35 1 0 0
node 234 1 0 0
gene  1 1 4 0.43389948177894855 0 1.0 0.43389948177894855 1
gene  2 2 4 -0.2212893666423038 0 2.0 -0.2212893666423038 1
gene  3 3 4 -11.015216276766193 0 3.0 -11.015216276766193 1
gene  1 1 9 -0.4237843183506218 0 12.0 -0.4237843183506218 0
gene  2 9 4 1.3131942632401488 0 13.0 1.3131942632401488 1
gene  2 2 9 2.52756434196245 0 23.0 2.52756434196245 1
gene  1 1 16 6.771670845940663 0 31.0 6.771670845940663 1
gene  1 16 4 16.683746633674243 0 32.0 16.683746633674243 1
gene  1 3 16 -2.924940926316938 0 42.0 -2.924940926316938 1
gene  2 2 16 -16.49833642041942 0 59.0 -16.49833642041942 1
gene  1 3 9 -0.7213295774090915 0 101.0 -0.7213295774090915 1
gene  2 9 35 -6.775312630202 0 109.0 -6.775312630202 1
gene  2 35 4 -2.4943085481563427 0 110.0 -2.4943085481563427 1
gene  1 1 35 6.493975917813204 0 145.0 6.493975917813204 1
gene  1 16 9 -5.064204799300054 0 170.0 -5.064204799300054 1
gene  2 3 35 1.9515355317269556 0 211.0 1.9515355317269556 1
gene  3 2 35 2.064960906600727 0 443.0 2.064960906600727 1
gene  2 16 35 0.014717077958835922 0 559.0 0.014717077958835922 1
gene  1 1 234 -1.904614948323926 0 1019.0 -1.904614948323926 1
gene  1 234 9 -1.2234322946453 0 1020.0 -1.2234322946453 1
genomeend 43
/*-------------------------------------------------------------------*/
/* Species # 024         : (size= 002) (AvfFit= 4.000) (Age= 65.000)  */
/*-------------------------------------------------------------------*/
/* Organism # 044 Fitness:  0.000 Error:  0.000                      */
genomestart  44
trait 1 0.1 0.0 0.0 0.0 0.9433861633014814 0.9585691025587977 0.520102411888866 0.0 
trait 2 0.2 0.00344108247732558 0.2067934491470224 0.05198759219154954 0.0 0.1232631512304428 0.0 0.09037414735194954 
trait 3 0.6429378319694531 0.0 0.0 0.0 1.8106480048613611 0.45623921106439436 0.45282163273975184 0.0 
node 1 1 1 1
node 2 3 1 1
node 3 1 1 3
node 4 3 0 2
node 9 3 0 0
node 18 1 0 0
node 22 1 0 0
node 91 1 0 0
node 119 3 0 0
gene  1 1 4 1.8593982508355744 0 1.0 1.8593982508355744 1
gene  2 2 4 -0.32954251377045773 0 2.0 -0.32954251377045773 1
gene  2 3 4 -2.9289903773266484 0 3.0 -2.9289903773266484 1
gene  1 1 9 -7.539896698136547 0 12.0 -7.539896698136547 1
gene  1 9 4 -0.26799853001724605 0 13.0 -0.26799853001724605 1
gene  2 2 9 4.3299962077669205 0 23.0 4.3299962077669205 1
gene  3 3 9 1.7389361229767735 0 30.0 1.7389361229767735 1
gene  2 2 18 3.8013437322013637 0 36.0 3.8013437322013637 1
gene  2 18 4 1.3256210003043263 0 37.0 1.3256210003043263 1
gene  1 1 22 3.9373663182442837 0 47.0 3.9373663182442837 1
gene  1 22 9 -3.2584998792346074 0 48.0 -3.2584998792346074 1
gene  3 22 4 1.5202962322629143 0 56.0 1.5202962322629143 1
gene  3 9 18 -1.908884653800253 0 111.0 -1.908884653800253 1
gene  2 3 18 4.750977001052462 0 138.0 4.750977001052462 1
gene  1 3 22 2.472554312068592 0 196.0 2.472554312068592 1
gene  3 1 18 1.4864778790820745 0 287.0 1.4864778790820745 1
gene  1 1 91 4.080119287498704 0 385.0 4.080119287498704 1
gene  1 91 4 2.1270183166774057 0 386.0 2.1270183166774057 1
gene  1 1 119 -1.0311245814010221 0 521.0 -1.0311245814010221 1
gene  1 119 91 -0.3889171388019566 0 522.0 -0.3889171388019566 1
gene  2 3 91 -2.561511700919703 0 864.0 -2.561511700919703 1
gene  3 22 91 -1.559564247742611 0 884.0 -1.559564247742611 1
gene  3 9 119 -0.6415628563382875 0 1221.0 -0.6415628563382875 1
gene  1 22 18 9.570541771785265 0 1420.0 9.570541771785265 1
genomeend 44
/* Organism # 045 Fitness:  0.000 Error:  0.000                      */
genomestart  45
trait 1 0.1 0.0 0.0 0.0 0.9433861633014814 0.9585691025587977 0.520102411888866 0.0 
trait 2 0.2 0.00344108247732558 0.2067934491470224 0.05198759219154954 0.0 0.1232631512304428 0.0 0.09037414735194954 
trait 3 0.6429378319694531 0.0 0.0 0.0 1.8106480048613611 0.45623921106439436 0.45282163273975184 0.0 
node 1 1 1 1
node 2 3 1 1
node 3 1 1 3
node 4 3 0 2
node 9 3 0 0
node 18 1 0 0
node 22 1 0 0
node 91 1 0 0
node 119 3 0 0
gene  1 1 4 1.8593982508355744 0 1.0 1.8593982508355744 1
gene  2 2 4 0.7800765534964382 0 2.0 0.7800765534964382 1
gene  2 3 4 -2.7645584128040843 0 3.0 -2.7645584128040843 1
gene  1 1 9 -5.824581627981667 0 12.0 -5.824581627981667 1
gene  1 9 4 -2.2786406054279214 0 13.0 -2.2786406054279214 1
gene  2 2 9 1.7582403527778245 0 23.0 1.7582403527778245 1
gene  3 3 9 3.6155203447424755 0 30.0 3.6155203447424755 1
gene  2 2 18 4.0193966860930885 0 36.0 4.0193966860930885 1
gene  2 18 4 1.5334488170640634 0 37.0 1.5334488170640634 1
gene  1 1 22 2.5049797803164657 0 47.0 2.5049797803164657 1
gene  1 22 9 -3.3257672930626923 0 48.0 -3.3257672930626923 1
gene  3 22 4 -0.7898053935423768 0 56.0 -0.7898053935423768 1
gene  3 9 18 1.0547562303968305 0 111.0 1.0547562303968305 1
gene  2 3 18 7.716636632894938 0 138.0 7.716636632894938 1
gene  1 3 22 3.0195996961661207 0 196.0 3.0195996961661207 1
gene  3 1 18 -0.8640379321892269 0 287.0 -0.8640379321892269 1
gene  1 1 91 2.097251008160624 0 385.0 2.097251008160624 1
gene  1 91 4 3.6186309919132875 0 386.0 3.6186309919132875 1
gene  1 1 119 1.1677800074743843 0 521.0 1.1677800074743843 1
gene  1 119 91 4.15016921591283 0 522.0 4.15016921591283 1
gene  2 3 91 -1.5130579589090103 0 864.0 -1.5130579589090103 1
gene  3 22 91 1.6445128158922935 0 884.0 1.6445128158922935 1
gene  3 9 119 0.524233507866105 0 1221.0 0.524233507866105 1
gene  1 22 18 0.5121156249933895 0 1420.0 0.5121156249933895 1
genomeend 45
/*-------------------------------------------------------------------*/
/* Species # 025         : (size= 004) (AvfFit= 8.500) (Age= 65.000)  */
/*-------------------------------------------------------------------*/
/* Organism # 046 Fitness:  0.000 Error:  0.000                      */
genomestart  46
trait 1 0.1 0.0 0.0 0.0 0.19230303066878282 0.0 0.0 0.0 
trait 2 1.1642271368976618 0.0 0.4085741546277273 0.153879407694749 0.0 0.8485275515155498 0.4875619239020398 0.8622557700525357 
trait 3 0.929327710702287 0.0 0.0 0.0 0.0 0.7586280367762095 0.0 0.0 
node 1 3 1 1
node 2 1 1 1
node 3 3 1 3
node 4 3 0 2
node 9 3 0 0
node 16 1 0 0
node 47 2 0 0
node 180 1 0 0
node 345 1 0 0
gene  1 1 4 -6.224676698864299 0 1.0 -6.224676698864299 1
gene  2 2 4 7.407875578010868 0 2.0 7.407875578010868 1
gene  3 3 4 1.7500417434890987 0 3.0 1.7500417434890987 1
gene  1 1 9 15.81690202772727 0 12.0 15.81690202772727 1
gene  2 9 4 -14.289547566646462 0 13.0 -14.289547566646462 1
gene  2 2 9 -8.590692141643963 0 23.0 -8.590692141643963 1
gene  2 1 16 -1.2391980437857086 0 31.0 -1.2391980437857086 0
gene  1 16 4 3.7747003491452613 0 32.0 3.7747003491452613 1
gene  3 3 16 -0.6576748484807793 0 42.0 -0.6576748484807793 1
gene  2 2 16 1.9880708148292334 0 59.0 1.9880708148292334 1
gene  3 3 9 0.11670722363362618 0 101.0 0.11670722363362618 1
gene  3 1 47 4.535571529358062 0 171.0 4.535571529358062 1
gene  2 47 4 -5.777094904109467 0 172.0 -5.777094904109467 1
gene  2 2 180 5.621811080803859 0 775.0 5.621811080803859 1
gene  1 180 4 -1.4291652910528556 0 776.0 -1.4291652910528556 1
gene  1 1 180 -0.5595811094495065 0 1462.0 -0.5595811094495065 1
gene  2 1 345 1.0 0 1479.0 1.0 1
gene  2 345 16 -0.2779200667231707 0 1480.0 -0.2779200667231707 1
genomeend 46
/* Organism # 047 Fitness:  0.000 Error:  0.000                      */
genomestart  47
trait 1 0.1 0.0 0.0 0.0 0.19230303066878282 0.0 0.0 0.0 
trait 2 1.1642271368976618 0.0 0.4085741546277273 0.153879407694749 0.0 0.8485275515155498 0.4875619239020398 0.8622557700525357 
trait 3 0.929327710702287 0.0 0.0 0.0 0.0 0.7586280367762095 0.0 0.0 
node 1 3 1 1
node 2 1 1 1
node 3 3 1 3
node 4 3 0 2
node 9 3 0 0
node 16 1 0 0
node 47 2 0 0
node 180 1 0 0
gene  1 1 4 -1.8853578364361188 0 1.0 -1.8853578364361188 1
gene  2 2 4 12.019984197307382 0 2.0 12.019984197307382 1
gene  3 3 4 2.675825871392116 0 3.0 2.675825871392116 1
gene  1 1 9 12.399307521733391 0 12.0 12.399307521733391 1
gene  2 9 4 -13.133173519405712 0 13.0 -13.133173519405712 1
gene  2 2 9 -3.086823817734158 0 23.0 -3.086823817734158 1
gene  2 1 16 -2.405819603277845 0 31.0 -2.405819603277845 1
gene  1 16 4 9.893323535394533 0 32.0 9.893323535394533 1
gene  3 3 16 -0.8180417934794053 0 42.0 -0.8180417934794053 1
gene  2 2 16 -2.4744539157792547 0 59.0 -2.4744539157792547 1
gene  3 3 9 0.2893062965137283 0 101.0 0.2893062965137283 1
gene  3 1 47 3.667931724527728 0 171.0 3.667931724527728 1
gene  2 47 4 -2.9013751488976864 0 172.0 -2.9013751488976864 1
gene  2 2 180 1.6604505088783728 0 775.0 1.6604505088783728 1
gene  1 180 4 1.7528222163130578 0 776.0 1.7528222163130578 1
gene  1 1 180 1.2676119116669229 0 1462.0 1.2676119116669229 1
genomeend 47
/* Organism # 048 Fitness:  0.000 Error:  0.000                      */
genomestart  48
trait 1 0.1 0.0 0.0 0.0 0.19230303066878282 0.0 0.0 0.0 
trait 2 1.1642271368976618 0.0 0.4085741546277273 0.153879407694749 0.0 0.8485275515155498 0.4875619239020398 0.8622557700525357 
trait 3 0.929327710702287 0.0 0.0 0.0 0.0 0.7586280367762095 0.4511297711990033 0.0 
node 1 3 1 1
node 2 1 1 1
node 3 3 1 3
node 4 3 0 2
node 9 3 0 0
node 16 1 0 0
node 47 2 0 0
node 180 1 0 0
gene  1 1 4 -0.8003526008347637 0 1.0 -0.8003526008347637 1
gene  2 2 4 7.248937553677804 0 2.0 7.248937553677804 1
gene  3 3 4 6.349358884966503 0 3.0 6.349358884966503 1
gene  1 1 9 18.285036547475418 0 12.0 18.285036547475418 1
gene  2 9 4 -11.17460736571552 0 13.0 -11.17460736571552 1
gene  2 2 9 -7.792705197280848 0 23.0 -7.792705197280848 1
gene  2 1 16 -2.898402393760152 0 31.0 -2.898402393760152 1
gene  1 16 4 0.22631872616780652 0 32.0 0.22631872616780652 1
gene  3 3 16 -2.4515227404498177 0 42.0 -2.4515227404498177 1
gene  2 2 16 -3.4086029313191393 0 59.0 -3.4086029313191393 1
gene  3 3 9 4.107980629760975 0 101.0 4.107980629760975 1
gene  3 1 47 2.119870049761503 0 171.0 2.119870049761503 1
gene  2 47 4 2.138916604652301 0 172.0 2.138916604652301 1
gene  2 2 180 5.773779099422939 0 775.0 5.773779099422939 1
gene  1 180 4 -2.6095936737726984 0 776.0 -2.6095936737726984 1
gene  1 1 180 8.991353969173963 0 1462.0 8.991353969173963 1
genomeend 48
/* Organism # 049 Fitness:  0.000 Error:  0.000                      */
genomestart  49
trait 1 0.1 0.0 0.0 0.0 0.19230303066878282 0.0 0.0 0.0 
trait 2 1.1642271368976618 0.0 1.0824571792088957 0.153879407694749 0.0 0.8485275515155498 1.014645419852337 1.672985523393359 
trait 3 0.929327710702287 0.0 0.0 0.0 0.0 0.7586280367762095 0.0 0.0 
node 1 3 1 1
node 2 1 1 1
node 3 3 1 3
node 4 3 0 2
node 9 3 0 0
node 16 1 0 0
node 47 2 0 0
node 180 1 0 0
gene  1 1 4 -2.04828692089911 0 1.0 -2.04828692089911 1
gene  2 2 4 10.567777915334082 0 2.0 10.567777915334082 1
gene  3 3 4 4.784513981662006 0 3.0 4.784513981662006 1
gene  1 1 9 17.068209473490327 0 12.0 17.068209473490327 1
gene  2 9 4 1.2320464981495975 0 13.0 1.2320464981495975 1
gene  2 2 9 -5.976686493739962 0 23.0 -5.976686493739962 1
gene  2 1 16 -2.562906095688594 0 31.0 -2.562906095688594 1
gene  1 16 4 -2.3778327585053076 0 32.0 -2.3778327585053076 1
gene  3 3 16 -2.520922856488456 0 42.0 -2.520922856488456 1
gene  2 2 16 -3.367179834707159 0 59.0 -3.367179834707159 1
gene  3 3 9 3.552131085234368 0 101.0 3.552131085234368 1
gene  3 1 47 5.565178002180038 0 171.0 5.565178002180038 1
gene  2 47 4 -4.032826473548524 0 172.0 -4.032826473548524 1
gene  2 2 180 6.475427265216875 0 775.0 6.475427265216875 1
gene  1 180 4 -2.271502380191713 0 776.0 -2.271502380191713 1
gene  1 1 180 8.398046309419417 0 1462.0 8.398046309419417 1
genomeend 49
/*-------------------------------------------------------------------*/
/* Species # 026         : (size= 002) (AvfFit= 3.098) (Age= 65.000)  */
/*-------------------------------------------------------------------*/
/* Organism # 050 Fitness:  0.000 Error:  0.000                      */
genomestart  50
trait 1 0.4614593833491767 2.105476846567556 0.0 0.0 0.0 0.0711528763820849 0.28358240685045066 0.0 
trait 2 0.046627377805491144 2.1506765483284875E-4 0.0 0.0 0.0 0.0 0.0 0.0 
trait 3 1.2530820158592557 0.5824153902650951 0.0 0.0 0.0 0.0 0.0 0.0 
node 1 3 1 1
node 2 1 1 1
node 3 1 1 3
node 4 1 0 2
node 9 3 0 0
node 21 1 0 0
node 22 1 0 0
node 23 1 0 0
node 36 3 0 0
node 40 1 0 0
node 55 3 0 0
node 192 1 0 0
node 282 1 0 0
node 325 1 0 0
gene  1 1 4 -0.4291252822780811 0 1.0 -0.4291252822780811 1
gene  2 2 4 -1.4566817320366958 0 2.0 -1.4566817320366958 1
gene  3 3 4 -1.080653442040814 0 3.0 -1.080653442040814 1
gene  1 1 9 -7.624004134002899 0 12.0 -7.624004134002899 1
gene  3 9 4 -10.843568230168394 0 13.0 -10.843568230168394 1
gene  1 2 9 -5.43185287310368 0 23.0 -5.43185287310368 1
gene  3 3 9 5.982769057134828 0 30.0 5.982769057134828 1
gene  2 1 21 -6.92824512629884 0 44.0 -6.92824512629884 1
gene  1 1 22 -1.2791699018206233 0 47.0 -1.2791699018206233 1
gene  1 2 23 -0.9506543718639993 0 54.0 -0.9506543718639993 1
gene  2 23 4 8.377802142088392 0 55.0 8.377802142088392 1
gene  1 1 23 -2.6039249979351666 0 100.0 -2.6039249979351666 0
gene  2 1 36 -1.7833537976368765 0 116.0 -1.7833537976368765 1
gene  1 36 9 -9.955404927920705 0 117.0 -9.955404927920705 0
gene  2 2 40 -0.17891379500153426 0 136.0 -0.17891379500153426 1
gene  2 40 4 1.1585739592011757 0 137.0 1.1585739592011757 1
gene  2 23 55 -7.56637272308517 0 205.0 -7.56637272308517 1
gene  2 55 4 -1.5606370907741343 0 206.0 -1.5606370907741343 1
gene  2 21 9 6.733634060433847 0 284.0 6.733634060433847 1
gene  2 55 22 6.315871948895678 0 417.0 6.315871948895678 1
gene  2 21 23 -8.33568805069865 0 497.0 -8.33568805069865 1
gene  2 21 40 7.419334226153069 0 532.0 7.419334226153069 1
gene  1 2 192 -2.2718024591835126 0 823.0 -2.2718024591835126 1
gene  1 192 23 -3.819472512965125 0 824.0 -3.819472512965125 1
gene  1 192 22 2.22130110241576 0 887.0 2.22130110241576 1
gene  2 55 9 0.3041918460305064 0 1089.0 0.3041918460305064 1
gene  1 36 282 -0.6574589969897278 0 1211.0 -0.6574589969897278 1
gene  1 282 9 -0.42033711947860897 0 1212.0 -0.42033711947860897 1
gene  1 192 4 1.1450852878413031 0 1333.0 1.1450852878413031 1
gene  1 1 325 -0.09445331835497345 0 1391.0 -0.09445331835497345 1
gene  1 325 23 -0.7596726516845731 0 1392.0 -0.7596726516845731 1
genomeend 50
/* Organism # 051 Fitness:  0.000 Error:  0.000                      */
genomestart  51
trait 1 0.4614593833491767 2.105476846567556 0.0 0.0 0.0 0.0711528763820849 0.28358240685045066 0.0 
trait 2 0.046627377805491144 2.1506765483284875E-4 0.0 0.0 0.0 0.0 0.0 0.0 
trait 3 1.2530820158592557 0.5824153902650951 0.0 0.08405439544205695 0.0 0.0 0.8108349454009337 0.0 
node 1 3 1 1
node 2 1 1 1
node 3 1 1 3
node 4 1 0 2
node 9 3 0 0
node 21 1 0 0
node 22 1 0 0
node 23 1 0 0
node 36 3 0 0
node 40 1 0 0
node 55 3 0 0
node 192 1 0 0
node 282 1 0 0
node 325 1 0 0
gene  1 1 4 -0.8302609326182497 0 1.0 -0.8302609326182497 1
gene  2 2 4 -0.5639213599719346 0 2.0 -0.5639213599719346 1
gene  3 3 4 -2.128478807116289 0 3.0 -2.128478807116289 1
gene  1 1 9 -7.304711956152544 0 12.0 -7.304711956152544 1
gene  3 9 4 -10.696089079878446 0 13.0 -10.696089079878446 1
gene  1 2 9 -7.354466427764916 0 23.0 -7.354466427764916 1
gene  3 3 9 6.315609056123692 0 30.0 6.315609056123692 1
gene  2 1 21 -6.431327061957481 0 44.0 -6.431327061957481 1
gene  1 1 22 -3.994098605496502 0 47.0 -3.994098605496502 1
gene  1 2 23 -0.020126792786865133 0 54.0 -0.020126792786865133 1
gene  2 23 4 10.426321063119705 0 55.0 10.426321063119705 1
gene  1 1 23 -0.7341473143966613 0 100.0 -0.7341473143966613 0
gene  2 1 36 1.988600057417214 0 116.0 1.988600057417214 1
gene  1 36 9 -9.822897805490932 0 117.0 -9.822897805490932 0
gene  2 2 40 -0.7826087238651467 0 136.0 -0.7826087238651467 1
gene  2 40 4 -1.0269470388145936 0 137.0 -1.0269470388145936 1
gene  2 23 55 -7.4279624111641915 0 205.0 -7.4279624111641915 1
gene  2 55 4 -4.105297224745252 0 206.0 -4.105297224745252 1
gene  2 21 9 6.897311490733542 0 284.0 6.897311490733542 1
gene  2 55 22 2.0242691535879636 0 417.0 2.0242691535879636 1
gene  2 21 23 -8.997763685927069 0 497.0 -8.997763685927069 1
gene  2 21 40 0.8664191768231061 0 532.0 0.8664191768231061 1
gene  1 2 192 2.4892728666855732 0 823.0 2.4892728666855732 1
gene  1 192 23 -4.189481474188462 0 824.0 -4.189481474188462 1
gene  1 192 22 1.6083503216273578 0 887.0 1.6083503216273578 1
gene  2 55 9 -1.4372982641560335 0 1089.0 -1.4372982641560335 1
gene  1 36 282 2.053802161046548 0 1211.0 2.053802161046548 1
gene  1 282 9 -0.39889523908766567 0 1212.0 -0.39889523908766567 1
gene  1 192 4 -0.7022414972262623 0 1333.0 -0.7022414972262623 1
gene  1 1 325 -0.47397652123337547 0 1391.0 -0.47397652123337547 1
gene  1 325 23 -0.6864629220221956 0 1392.0 -0.6864629220221956 1
genomeend 51
/*-------------------------------------------------------------------*/
/* Species # 027         : (size= 004) (AvfFit= 6.400) (Age= 65.000)  */
/*-------------------------------------------------------------------*/
/* Organism # 052 Fitness:  0.000 Error:  0.000                      */
genomestart  52
trait 1 0.1 0.0 0.0 0.0 0.0 0.0 0.0 0.0 
trait 2 0.2 1.8818419797874265E-4 0.12364985839711991 0.011372285791901462 0.0 0.1232631512304428 0.0 0.022593536837987385 
trait 3 1.0025648167270897 0.7109629994925262 0.28127393791773525 0.0 0.0 0.0 0.0 0.47532984813181134 
node 1 1 1 1
node 2 1 1 1
node 3 1 1 3
node 4 1 0 2
node 9 1 0 0
node 21 3 0 0
node 22 1 0 0
node 23 2 0 0
node 42 1 0 0
node 137 1 0 0
node 271 1 0 0
gene  1 1 4 2.442318367314533 0 1.0 2.442318367314533 1
gene  2 2 4 -10.018105278521736 0 2.0 -10.018105278521736 1
gene  3 3 4 -2.5017146023626435 0 3.0 -2.5017146023626435 1
gene  1 1 9 3.174858737723985 0 12.0 3.174858737723985 1
gene  2 9 4 0.8657781755344235 0 13.0 0.8657781755344235 1
gene  2 2 9 1.4866107073633055 0 23.0 1.4866107073633055 1
gene  3 3 9 6.515923871030541 0 30.0 6.515923871030541 1
gene  3 1 21 -4.187831443135632 0 44.0 -4.187831443135632 1
gene  1 1 22 -2.1799143876447045 0 47.0 -2.1799143876447045 1
gene  2 2 23 -3.5441148569590952 0 54.0 -3.5441148569590952 1
gene  1 23 4 -0.13866540229069568 0 55.0 -0.13866540229069568 1
gene  3 1 42 1.7034661945122513 0 142.0 1.7034661945122513 1
gene  1 42 4 1.8691024071796023 0 143.0 1.8691024071796023 1
gene  3 23 42 -2.1381619895893356 0 516.0 -2.1381619895893356 1
gene  1 3 23 1.0562256568179524 0 526.0 1.0562256568179524 1
gene  2 9 42 2.357649735435968 0 563.0 2.357649735435968 1
gene  1 1 137 2.967956625882673 0 603.0 2.967956625882673 1
gene  1 137 22 -5.523731917566541 0 604.0 -5.523731917566541 1
gene  2 137 9 -13.061231892056858 0 620.0 -13.061231892056858 0
gene  3 2 42 2.647056783455489 0 768.0 2.647056783455489 1
gene  2 21 22 0.6489843423494066 0 861.0 0.6489843423494066 1
gene  1 9 23 1.631424025199095 0 1043.0 1.631424025199095 1
gene  1 21 23 -3.7537980182105404 0 1057.0 -3.7537980182105404 1
gene  3 1 23 1.06495222356502 0 1135.0 1.06495222356502 1
gene  3 137 271 -1.0124978344071485 0 1162.0 -1.0124978344071485 1
gene  1 271 9 3.3581372601474517 0 1163.0 3.3581372601474517 1
genomeend 52
/* Organism # 053 Fitness:  0.000 Error:  0.000                      */
genomestart  53
trait 1 0.1 0.0 0.0 0.0 0.0 0.0 0.0 0.0 
trait 2 0.2 1.8818419797874265E-4 0.12364985839711991 0.011372285791901462 0.0 0.1232631512304428 0.0 0.022593536837987385 
trait 3 1.0025648167270897 0.7109629994925262 0.28127393791773525 0.0 0.0 0.0 0.0 0.47532984813181134 
node 1 1 1 1
node 2 1 1 1
node 3 1 1 3
node 4 1 0 2
node 9 1 0 0
node 21 3 0 0
node 22 1 0 0
node 23 2 0 0
node 42 1 0 0
node 137 1 0 0
node 271 1 0 0
gene  1 1 4 10.670558147535514 0 1.0 10.670558147535514 1
gene  2 2 4 -10.58032426821881 0 2.0 -10.58032426821881 1
gene  3 3 4 -1.6219437256721894 0 3.0 -1.6219437256721894 1
gene  1 1 9 -1.4677789393176393 0 12.0 -1.4677789393176393 1
gene  2 9 4 -6.879380968469117 0 13.0 -6.879380968469117 1
gene  2 2 9 7.28442898150881 0 23.0 7.28442898150881 1
gene  3 3 9 7.902267961546521 0 30.0 7.902267961546521 1
gene  3 1 21 -4.877395399306215 0 44.0 -4.877395399306215 1
gene  1 1 22 0.518946228076895 0 47.0 0.518946228076895 1
gene  2 2 23 -3.7934156279657296 0 54.0 -3.7934156279657296 1
gene  1 23 4 0.978022879020908 0 55.0 0.978022879020908 1
gene  3 1 42 -8.808738771109075 0 142.0 -8.808738771109075 1
gene  1 42 4 -6.377049446867189 0 143.0 -6.377049446867189 1
gene  3 23 42 -6.397791403664868 0 516.0 -6.397791403664868 1
gene  1 3 23 2.3483532851198774 0 526.0 2.3483532851198774 1
gene  2 9 42 -2.11108342436015 0 563.0 -2.11108342436015 1
gene  1 1 137 6.108188731986159 0 603.0 6.108188731986159 1
gene  1 137 22 -7.595339050919092 0 604.0 -7.595339050919092 1
gene  2 137 9 -10.007475340499294 0 620.0 -10.007475340499294 0
gene  3 2 42 0.5225866517584804 0 768.0 0.5225866517584804 1
gene  2 21 22 -4.387411472349233 0 861.0 -4.387411472349233 1
gene  1 9 23 15.167851245164389 0 1043.0 15.167851245164389 1
gene  1 21 23 -3.0214906140415705 0 1057.0 -3.0214906140415705 1
gene  3 1 23 2.0266239984250882 0 1135.0 2.0266239984250882 1
gene  3 137 271 -3.277001849760878 0 1162.0 -3.277001849760878 1
gene  1 271 9 0.18276588916966174 0 1163.0 0.18276588916966174 1
genomeend 53
/* Organism # 054 Fitness:  0.000 Error:  0.000                      */
genomestart  54
trait 1 0.1 0.0 0.0 0.0 0.0 0.0 0.0 0.0 
trait 2 0.2 1.8818419797874265E-4 0.12364985839711991 0.011372285791901462 0.0 0.1232631512304428 0.0 0.022593536837987385 
trait 3 1.0025648167270897 0.7109629994925262 0.28127393791773525 0.0 0.0 0.0 0.0 0.47532984813181134 
node 1 1 1 1
node 2 1 1 1
node 3 1 1 3
node 4 1 0 2
node 9 1 0 0
node 21 3 0 0
node 22 1 0 0
node 23 2 0 0
node 42 1 0 0
node 137 1 0 0
node 271 1 0 0
gene  1 1 4 8.042325989957826 0 1.0 8.042325989957826 1
gene  2 2 4 1.9280962784844866 0 2.0 1.9280962784844866 1
gene  3 3 4 1.1936578816475372 0 3.0 1.1936578816475372 1
gene  1 1 9 0.5863462128996477 0 12.0 0.5863462128996477 1
gene  2 9 4 -0.1304578598664763 0 13.0 -0.1304578598664763 1
gene  2 2 9 2.9260984236028253 0 23.0 2.9260984236028253 1
gene  3 3 9 -0.31587486962301875 0 30.0 -0.31587486962301875 1
gene  3 1 21 -4.140963525474409 0 44.0 -4.140963525474409 1
gene  1 1 22 0.7407052987008265 0 47.0 0.7407052987008265 1
gene  2 2 23 -1.869490778980952 0 54.0 -1.869490778980952 1
